svm_type c_svc
kernel_type rbf
gamma 0.5
nr_class 2
total_sv 639
rho 0.44354460575729354
label 4 2
nr_sv 227 412
SV
1.0 1:1099510.0 2:10.0 3:4.0 4:3.0 5:1.0 6:3.0 7:3.0 8:6.0 9:5.0 10:2.0 
0.4679071396145953 1:1100524.0 2:6.0 3:10.0 4:10.0 5:2.0 6:8.0 7:10.0 8:7.0 9:3.0 10:3.0 
1.0 1:1102573.0 2:5.0 3:6.0 4:5.0 5:6.0 6:10.0 7:1.0 8:3.0 9:1.0 10:1.0 
1.0 1:1103608.0 2:10.0 3:10.0 4:10.0 5:4.0 6:8.0 7:1.0 8:8.0 9:10.0 10:1.0 
1.0 1:1105257.0 2:3.0 3:7.0 4:7.0 5:4.0 6:4.0 7:9.0 8:4.0 9:8.0 10:1.0 
1.0 1:1106829.0 2:7.0 3:8.0 4:7.0 5:2.0 6:4.0 7:8.0 8:3.0 9:8.0 10:2.0 
1.0 1:1108370.0 2:9.0 3:5.0 4:8.0 5:1.0 6:2.0 7:3.0 8:2.0 9:1.0 10:5.0 
1.0 1:1108449.0 2:5.0 3:3.0 4:3.0 5:4.0 6:2.0 7:4.0 8:3.0 9:4.0 10:1.0 
1.0 1:1110102.0 2:10.0 3:3.0 4:6.0 5:2.0 6:3.0 7:5.0 8:4.0 9:10.0 10:2.0 
1.0 1:1110503.0 2:5.0 3:5.0 4:5.0 5:8.0 6:10.0 7:8.0 8:7.0 9:3.0 10:7.0 
1.0 1:1110524.0 2:10.0 3:5.0 4:5.0 5:6.0 6:8.0 7:8.0 8:7.0 9:1.0 10:1.0 
1.0 1:1111249.0 2:10.0 3:6.0 4:6.0 5:3.0 6:4.0 7:5.0 8:3.0 9:6.0 10:1.0 
1.0 1:1112209.0 2:8.0 3:10.0 4:10.0 5:1.0 6:3.0 7:6.0 8:3.0 9:9.0 10:1.0 
1.0 1:1113038.0 2:8.0 3:2.0 4:4.0 5:1.0 6:5.0 7:1.0 8:5.0 9:4.0 10:4.0 
1.0 1:1113483.0 2:5.0 3:2.0 4:3.0 5:1.0 6:6.0 7:10.0 8:5.0 9:1.0 10:1.0 
1.0 1:1113906.0 2:9.0 3:5.0 4:5.0 5:2.0 6:2.0 7:2.0 8:5.0 9:1.0 10:1.0 
1.0 1:1115282.0 2:5.0 3:3.0 4:5.0 5:5.0 6:3.0 7:3.0 8:4.0 9:10.0 10:1.0 
0.4677937916249312 1:1116116.0 2:9.0 3:10.0 4:10.0 5:1.0 6:10.0 7:8.0 8:3.0 9:3.0 10:1.0 
1.0 1:1116132.0 2:6.0 3:3.0 4:4.0 5:1.0 6:5.0 7:2.0 8:3.0 9:9.0 10:1.0 
1.0 1:1116998.0 2:10.0 3:4.0 4:2.0 5:1.0 6:3.0 7:2.0 8:4.0 9:3.0 10:10.0 
1.0 1:1118039.0 2:5.0 3:3.0 4:4.0 5:1.0 6:8.0 7:10.0 8:4.0 9:9.0 10:1.0 
1.0 1:1120559.0 2:8.0 3:3.0 4:8.0 5:3.0 6:4.0 7:9.0 8:8.0 9:9.0 10:8.0 
1.0 1:1123061.0 2:6.0 3:10.0 4:2.0 5:8.0 6:10.0 7:2.0 8:7.0 9:8.0 10:10.0 
1.0 1:1125035.0 2:9.0 3:4.0 4:5.0 5:10.0 6:6.0 7:10.0 8:4.0 9:8.0 10:1.0 
1.0 1:1126417.0 2:10.0 3:6.0 4:4.0 5:1.0 6:3.0 7:4.0 8:3.0 9:2.0 10:3.0 
1.0 1:1147699.0 2:3.0 3:5.0 4:7.0 5:8.0 6:8.0 7:9.0 8:7.0 9:10.0 10:7.0 
1.0 1:1147748.0 2:5.0 3:10.0 4:6.0 5:1.0 6:10.0 7:4.0 8:4.0 9:10.0 10:10.0 
1.0 1:1148278.0 2:3.0 3:3.0 4:6.0 5:4.0 6:5.0 7:8.0 8:4.0 9:4.0 10:1.0 
1.0 1:1148873.0 2:3.0 3:6.0 4:6.0 5:6.0 6:5.0 7:10.0 8:6.0 9:8.0 10:3.0 
1.0 1:1165926.0 2:9.0 3:6.0 4:9.0 5:2.0 6:10.0 7:6.0 8:2.0 9:9.0 10:10.0 
1.0 1:1166630.0 2:7.0 3:5.0 4:6.0 5:10.0 6:5.0 7:10.0 8:7.0 9:9.0 10:4.0 
1.0 1:1166654.0 2:10.0 3:3.0 4:5.0 5:1.0 6:10.0 7:5.0 8:3.0 9:10.0 10:2.0 
1.0 1:1167439.0 2:2.0 3:3.0 4:4.0 5:4.0 6:2.0 7:5.0 8:2.0 9:5.0 10:1.0 
1.0 1:1168359.0 2:8.0 3:2.0 4:3.0 5:1.0 6:6.0 7:3.0 8:7.0 9:1.0 10:1.0 
1.0 1:1168736.0 2:10.0 3:10.0 4:10.0 5:10.0 6:10.0 7:1.0 8:8.0 9:8.0 10:8.0 
1.0 1:1169049.0 2:7.0 3:3.0 4:4.0 5:4.0 6:3.0 7:3.0 8:3.0 9:2.0 10:7.0 
1.0 1:1170419.0 2:10.0 3:10.0 4:10.0 5:8.0 6:2.0 7:10.0 8:4.0 9:1.0 10:1.0 
1.0 1:1170420.0 2:1.0 3:6.0 4:8.0 5:10.0 6:8.0 7:10.0 8:5.0 9:7.0 10:1.0 
1.0 1:1171710.0 2:6.0 3:5.0 4:4.0 5:4.0 6:3.0 7:9.0 8:7.0 9:8.0 10:3.0 
1.0 1:1171845.0 2:8.0 3:6.0 4:4.0 5:3.0 6:5.0 7:9.0 8:3.0 9:1.0 10:1.0 
1.0 1:1172152.0 2:10.0 3:3.0 4:3.0 5:10.0 6:2.0 7:10.0 8:7.0 9:3.0 10:3.0 
1.0 1:1173216.0 2:10.0 3:10.0 4:10.0 5:3.0 6:10.0 7:8.0 8:8.0 9:1.0 10:1.0 
1.0 1:1173509.0 2:4.0 3:5.0 4:5.0 5:10.0 6:4.0 7:10.0 8:7.0 9:5.0 10:8.0 
1.0 1:1174131.0 2:10.0 3:10.0 4:10.0 5:2.0 6:10.0 7:10.0 8:5.0 9:3.0 10:3.0 
1.0 1:1174428.0 2:5.0 3:3.0 4:5.0 5:1.0 6:8.0 7:10.0 8:5.0 9:3.0 10:1.0 
1.0 1:1175937.0 2:5.0 3:4.0 4:6.0 5:7.0 6:9.0 7:7.0 8:8.0 9:10.0 10:1.0 
1.0 1:1176881.0 2:7.0 3:5.0 4:3.0 5:7.0 6:4.0 7:10.0 8:7.0 9:5.0 10:5.0 
1.0 1:1177399.0 2:8.0 3:3.0 4:5.0 5:4.0 6:5.0 7:10.0 8:1.0 9:6.0 10:2.0 
1.0 1:1180194.0 2:5.0 3:10.0 4:8.0 5:10.0 6:8.0 7:10.0 8:3.0 9:6.0 10:3.0 
1.0 1:1183983.0 2:9.0 3:5.0 4:5.0 5:4.0 6:4.0 7:5.0 8:4.0 9:3.0 10:3.0 
1.0 1:1185609.0 2:3.0 3:4.0 4:5.0 5:2.0 6:6.0 7:8.0 8:4.0 9:1.0 10:1.0 
1.0 1:1187805.0 2:8.0 3:8.0 4:7.0 5:4.0 6:10.0 7:10.0 8:7.0 9:8.0 10:7.0 
1.0 1:1189266.0 2:7.0 3:2.0 4:4.0 5:1.0 6:6.0 7:10.0 8:5.0 9:4.0 10:3.0 
1.0 1:1189286.0 2:10.0 3:10.0 4:8.0 5:6.0 6:4.0 7:5.0 8:8.0 9:10.0 10:1.0 
1.0 1:1192325.0 2:5.0 3:5.0 4:5.0 5:6.0 6:3.0 7:10.0 8:3.0 9:1.0 10:1.0 
1.0 1:1196295.0 2:9.0 3:9.0 4:10.0 5:3.0 6:6.0 7:10.0 8:7.0 9:10.0 10:6.0 
1.0 1:1196915.0 2:10.0 3:7.0 4:7.0 5:4.0 6:5.0 7:10.0 8:5.0 9:7.0 10:2.0 
1.0 1:1197993.0 2:5.0 3:6.0 4:7.0 5:8.0 6:8.0 7:10.0 8:3.0 9:10.0 10:3.0 
1.0 1:1198128.0 2:10.0 3:8.0 4:10.0 5:10.0 6:6.0 7:1.0 8:3.0 9:1.0 10:10.0 
1.0 1:1200847.0 2:6.0 3:10.0 4:10.0 5:10.0 6:8.0 7:10.0 8:10.0 9:10.0 10:7.0 
1.0 1:1200892.0 2:8.0 3:6.0 4:5.0 5:4.0 6:3.0 7:10.0 8:6.0 9:1.0 10:1.0 
1.0 1:1200952.0 2:5.0 3:8.0 4:7.0 5:7.0 6:10.0 7:10.0 8:5.0 9:7.0 10:1.0 
1.0 1:1201936.0 2:5.0 3:10.0 4:10.0 5:3.0 6:8.0 7:1.0 8:5.0 9:10.0 10:3.0 
1.0 1:1202812.0 2:5.0 3:3.0 4:3.0 5:3.0 6:6.0 7:10.0 8:3.0 9:1.0 10:1.0 
1.0 1:1205138.0 2:5.0 3:8.0 4:8.0 5:8.0 6:5.0 7:10.0 8:7.0 9:8.0 10:1.0 
1.0 1:1205579.0 2:8.0 3:7.0 4:6.0 5:4.0 6:4.0 7:10.0 8:5.0 9:1.0 10:1.0 
1.0 1:1206695.0 2:1.0 3:5.0 4:8.0 5:6.0 6:5.0 7:8.0 8:7.0 9:10.0 10:1.0 
1.0 1:1206841.0 2:10.0 3:5.0 4:6.0 5:10.0 6:6.0 7:10.0 8:7.0 9:7.0 10:10.0 
1.0 1:1207986.0 2:5.0 3:8.0 4:4.0 5:10.0 6:5.0 7:8.0 8:9.0 9:10.0 10:1.0 
1.0 1:1210963.0 2:10.0 3:10.0 4:10.0 5:8.0 6:6.0 7:8.0 8:7.0 9:10.0 10:1.0 
1.0 1:1211202.0 2:7.0 3:5.0 4:10.0 5:10.0 6:10.0 7:10.0 8:4.0 9:10.0 10:3.0 
1.0 1:1214966.0 2:9.0 3:7.0 4:7.0 5:5.0 6:5.0 7:10.0 8:7.0 9:8.0 10:3.0 
1.0 1:1216694.0 2:10.0 3:8.0 4:8.0 5:4.0 6:10.0 7:10.0 8:8.0 9:1.0 10:1.0 
1.0 1:1218105.0 2:5.0 3:10.0 4:10.0 5:9.0 6:6.0 7:10.0 8:7.0 9:10.0 10:5.0 
1.0 1:1218741.0 2:10.0 3:10.0 4:9.0 5:3.0 6:7.0 7:5.0 8:3.0 9:5.0 10:1.0 
1.0 1:1219525.0 2:8.0 3:10.0 4:10.0 5:10.0 6:5.0 7:10.0 8:8.0 9:10.0 10:6.0 
1.0 1:1219859.0 2:8.0 3:10.0 4:8.0 5:8.0 6:4.0 7:8.0 8:7.0 9:7.0 10:1.0 
1.0 1:1221863.0 2:10.0 3:10.0 4:10.0 5:10.0 6:7.0 7:10.0 8:7.0 9:10.0 10:4.0 
1.0 1:1222047.0 2:10.0 3:10.0 4:10.0 5:10.0 6:3.0 7:10.0 8:10.0 9:6.0 10:1.0 
1.0 1:1222936.0 2:8.0 3:7.0 4:8.0 5:7.0 6:5.0 7:5.0 8:5.0 9:10.0 10:2.0 
1.0 1:1223793.0 2:6.0 3:10.0 4:7.0 5:7.0 6:6.0 7:4.0 8:8.0 9:10.0 10:2.0 
1.0 1:1225799.0 2:10.0 3:6.0 4:4.0 5:3.0 6:10.0 7:10.0 8:9.0 9:10.0 10:1.0 
1.0 1:1226012.0 2:4.0 3:1.0 4:1.0 5:3.0 6:1.0 7:5.0 8:2.0 9:1.0 10:1.0 
1.0 1:1226612.0 2:7.0 3:5.0 4:6.0 5:3.0 6:3.0 7:8.0 8:7.0 9:4.0 10:1.0 
1.0 1:1227210.0 2:10.0 3:5.0 4:5.0 5:6.0 6:3.0 7:10.0 8:7.0 9:9.0 10:2.0 
1.0 1:1227481.0 2:10.0 3:5.0 4:7.0 5:4.0 6:4.0 7:10.0 8:8.0 9:9.0 10:1.0 
1.0 1:1228152.0 2:8.0 3:9.0 4:9.0 5:5.0 6:3.0 7:5.0 8:7.0 9:7.0 10:1.0 
1.0 1:1230175.0 2:10.0 3:10.0 4:10.0 5:3.0 6:10.0 7:10.0 8:9.0 9:10.0 10:1.0 
1.0 1:1230688.0 2:7.0 3:4.0 4:7.0 5:4.0 6:3.0 7:7.0 8:7.0 9:6.0 10:1.0 
1.0 1:1231387.0 2:6.0 3:8.0 4:7.0 5:5.0 6:6.0 7:8.0 8:8.0 9:9.0 10:2.0 
1.0 1:1232225.0 2:10.0 3:4.0 4:5.0 5:5.0 6:5.0 7:10.0 8:4.0 9:1.0 10:1.0 
1.0 1:1241559.0 2:10.0 3:8.0 4:8.0 5:2.0 6:8.0 7:10.0 8:4.0 9:8.0 10:10.0 
1.0 1:1241679.0 2:9.0 3:8.0 4:8.0 5:5.0 6:6.0 7:2.0 8:4.0 9:10.0 10:4.0 
1.0 1:1242364.0 2:8.0 3:10.0 4:10.0 5:8.0 6:6.0 7:9.0 8:3.0 9:10.0 10:10.0 
1.0 1:1243256.0 2:10.0 3:4.0 4:3.0 5:2.0 6:3.0 7:10.0 8:5.0 9:3.0 10:2.0 
1.0 1:144888.0 2:8.0 3:10.0 4:10.0 5:8.0 6:5.0 7:10.0 8:7.0 9:8.0 10:1.0 
1.0 1:145447.0 2:8.0 3:4.0 4:4.0 5:1.0 6:2.0 7:9.0 8:3.0 9:3.0 10:1.0 
1.0 1:191250.0 2:10.0 3:4.0 4:4.0 5:10.0 6:2.0 7:10.0 8:5.0 9:3.0 10:3.0 
0.9754562081478082 1:1100524.0 2:6.0 3:10.0 4:10.0 5:2.0 6:8.0 7:10.0 8:7.0 9:3.0 10:3.0 
0.9756179909591527 1:1116116.0 2:9.0 3:10.0 4:10.0 5:1.0 6:10.0 7:8.0 8:3.0 9:3.0 10:1.0 
1.0 1:1168736.0 2:5.0 3:6.0 4:6.0 5:2.0 6:4.0 7:10.0 8:3.0 9:6.0 10:1.0 
1.0 1:255644.0 2:10.0 3:5.0 4:8.0 5:10.0 6:3.0 7:10.0 8:5.0 9:1.0 10:3.0 
1.0 1:263538.0 2:5.0 3:10.0 4:10.0 5:6.0 6:10.0 7:10.0 8:10.0 9:6.0 10:5.0 
1.0 1:274137.0 2:8.0 3:8.0 4:9.0 5:4.0 6:5.0 7:10.0 8:7.0 9:8.0 10:1.0 
1.0 1:303213.0 2:10.0 3:4.0 4:4.0 5:10.0 6:6.0 7:10.0 8:5.0 9:5.0 10:1.0 
1.0 1:314428.0 2:7.0 3:9.0 4:4.0 5:10.0 6:10.0 7:3.0 8:5.0 9:3.0 10:3.0 
1.0 1:1198641.0 2:10.0 3:10.0 4:6.0 5:3.0 6:3.0 7:10.0 8:4.0 9:3.0 10:2.0 
0.46765778370097416 1:320675.0 2:3.0 3:3.0 4:5.0 5:2.0 6:3.0 7:10.0 8:7.0 9:1.0 10:1.0 
1.0 1:324427.0 2:10.0 3:8.0 4:8.0 5:2.0 6:3.0 7:4.0 8:8.0 9:7.0 10:8.0 
1.0 1:390840.0 2:8.0 3:4.0 4:7.0 5:1.0 6:3.0 7:10.0 8:3.0 9:9.0 10:2.0 
0.9758197928535923 1:320675.0 2:3.0 3:3.0 4:5.0 5:2.0 6:3.0 7:10.0 8:7.0 9:1.0 10:1.0 
1.0 1:428903.0 2:7.0 3:2.0 4:4.0 5:1.0 6:3.0 7:4.0 8:3.0 9:3.0 10:1.0 
1.0 1:476903.0 2:10.0 3:5.0 4:7.0 5:3.0 6:3.0 7:7.0 8:3.0 9:3.0 10:8.0 
1.0 1:488173.0 2:1.0 3:4.0 4:3.0 5:10.0 6:4.0 7:10.0 8:5.0 9:6.0 10:1.0 
1.0 1:492268.0 2:10.0 3:4.0 4:6.0 5:1.0 6:2.0 7:10.0 8:5.0 9:3.0 10:1.0 
1.0 1:508234.0 2:7.0 3:4.0 4:5.0 5:10.0 6:2.0 7:10.0 8:3.0 9:8.0 10:2.0 
1.0 1:527363.0 2:8.0 3:10.0 4:10.0 5:10.0 6:8.0 7:10.0 8:10.0 9:7.0 10:3.0 
1.0 1:529329.0 2:10.0 3:10.0 4:10.0 5:10.0 6:10.0 7:10.0 8:4.0 9:10.0 10:10.0 
1.0 1:543558.0 2:6.0 3:1.0 4:3.0 5:1.0 6:4.0 7:5.0 8:5.0 9:10.0 10:1.0 
1.0 1:555977.0 2:5.0 3:6.0 4:6.0 5:8.0 6:6.0 7:10.0 8:4.0 9:10.0 10:4.0 
1.0 1:601265.0 2:10.0 3:4.0 4:4.0 5:6.0 6:2.0 7:10.0 8:2.0 9:3.0 10:1.0 
1.0 1:606722.0 2:5.0 3:5.0 4:7.0 5:8.0 6:6.0 7:10.0 8:7.0 9:4.0 10:1.0 
1.0 1:63375.0 2:9.0 3:1.0 4:2.0 5:6.0 6:4.0 7:10.0 8:7.0 9:7.0 10:2.0 
1.0 1:635844.0 2:8.0 3:4.0 4:10.0 5:5.0 6:4.0 7:4.0 8:7.0 9:10.0 10:1.0 
1.0 1:640744.0 2:10.0 3:10.0 4:10.0 5:7.0 6:9.0 7:10.0 8:7.0 9:10.0 10:10.0 
1.0 1:653777.0 2:8.0 3:3.0 4:4.0 5:9.0 6:3.0 7:10.0 8:3.0 9:3.0 10:1.0 
1.0 1:659642.0 2:10.0 3:8.0 4:4.0 5:4.0 6:4.0 7:10.0 8:3.0 9:10.0 10:4.0 
1.0 1:667204.0 2:7.0 3:8.0 4:7.0 5:6.0 6:4.0 7:3.0 8:8.0 9:8.0 10:4.0 
1.0 1:691628.0 2:8.0 3:6.0 4:4.0 5:10.0 6:10.0 7:1.0 8:3.0 9:5.0 10:1.0 
1.0 1:706426.0 2:5.0 3:5.0 4:5.0 5:2.0 6:5.0 7:10.0 8:4.0 9:3.0 10:1.0 
1.0 1:709287.0 2:6.0 3:8.0 4:7.0 5:8.0 6:6.0 7:8.0 8:8.0 9:9.0 10:1.0 
1.0 1:730881.0 2:7.0 3:6.0 4:3.0 5:2.0 6:5.0 7:10.0 8:7.0 9:4.0 10:6.0 
1.0 1:733823.0 2:5.0 3:4.0 4:6.0 5:10.0 6:2.0 7:10.0 8:4.0 9:1.0 10:1.0 
1.0 1:752904.0 2:10.0 3:1.0 4:1.0 5:1.0 6:2.0 7:10.0 8:5.0 9:4.0 10:1.0 
1.0 1:760001.0 2:8.0 3:10.0 4:3.0 5:2.0 6:6.0 7:4.0 8:3.0 9:10.0 10:1.0 
1.0 1:760239.0 2:10.0 3:4.0 4:6.0 5:4.0 6:5.0 7:10.0 8:7.0 9:1.0 10:1.0 
1.0 1:76389.0 2:10.0 3:4.0 4:7.0 5:2.0 6:2.0 7:8.0 8:6.0 9:1.0 10:1.0 
1.0 1:785208.0 2:5.0 3:4.0 4:6.0 5:6.0 6:4.0 7:10.0 8:4.0 9:3.0 10:1.0 
1.0 1:785615.0 2:8.0 3:6.0 4:7.0 5:3.0 6:3.0 7:10.0 8:3.0 9:4.0 10:2.0 
1.0 1:797327.0 2:6.0 3:5.0 4:5.0 5:8.0 6:4.0 7:10.0 8:3.0 9:4.0 10:1.0 
1.0 1:806423.0 2:8.0 3:5.0 4:5.0 5:5.0 6:2.0 7:10.0 8:4.0 9:3.0 10:1.0 
1.0 1:809912.0 2:10.0 3:3.0 4:3.0 5:1.0 6:2.0 7:10.0 8:7.0 9:6.0 10:1.0 
1.0 1:822829.0 2:7.0 3:6.0 4:4.0 5:8.0 6:10.0 7:10.0 8:9.0 9:5.0 10:3.0 
1.0 1:832226.0 2:3.0 3:4.0 4:4.0 5:10.0 6:5.0 7:1.0 8:3.0 9:3.0 10:1.0 
1.0 1:832567.0 2:4.0 3:2.0 4:3.0 5:5.0 6:3.0 7:8.0 8:7.0 9:6.0 10:1.0 
1.0 1:850831.0 2:2.0 3:7.0 4:10.0 5:10.0 6:7.0 7:10.0 8:4.0 9:9.0 10:4.0 
1.0 1:859164.0 2:5.0 3:3.0 4:3.0 5:1.0 6:3.0 7:3.0 8:3.0 9:3.0 10:3.0 
1.0 1:859350.0 2:8.0 3:10.0 4:10.0 5:7.0 6:10.0 7:10.0 8:7.0 9:3.0 10:8.0 
1.0 1:866325.0 2:8.0 3:10.0 4:5.0 5:3.0 6:8.0 7:4.0 8:4.0 9:10.0 10:3.0 
1.0 1:873549.0 2:10.0 3:3.0 4:5.0 5:4.0 6:3.0 7:7.0 8:3.0 9:5.0 10:3.0 
1.0 1:877291.0 2:6.0 3:10.0 4:10.0 5:10.0 6:10.0 7:10.0 8:8.0 9:10.0 10:10.0 
1.0 1:877943.0 2:3.0 3:10.0 4:3.0 5:10.0 6:6.0 7:10.0 8:5.0 9:1.0 10:4.0 
1.0 1:95719.0 2:6.0 3:10.0 4:10.0 5:10.0 6:8.0 7:10.0 8:7.0 9:10.0 10:7.0 
1.0 1:160296.0 2:5.0 3:8.0 4:8.0 5:10.0 6:5.0 7:10.0 8:8.0 9:10.0 10:3.0 
1.0 1:846423.0 2:10.0 3:6.0 4:3.0 5:6.0 6:4.0 7:10.0 8:7.0 9:8.0 10:4.0 
1.0 1:1080233.0 2:7.0 3:6.0 4:6.0 5:3.0 6:2.0 7:10.0 8:7.0 9:1.0 10:1.0 
1.0 1:1151734.0 2:10.0 3:8.0 4:7.0 5:4.0 6:3.0 7:10.0 8:7.0 9:9.0 10:1.0 
1.0 1:1211265.0 2:3.0 3:10.0 4:8.0 5:7.0 6:6.0 7:9.0 8:9.0 9:3.0 10:8.0 
1.0 1:1238633.0 2:10.0 3:10.0 4:10.0 5:6.0 6:8.0 7:4.0 8:8.0 9:5.0 10:1.0 
1.0 1:1238948.0 2:8.0 3:5.0 4:6.0 5:2.0 6:3.0 7:10.0 8:6.0 9:6.0 10:1.0 
1.0 1:1239347.0 2:8.0 3:7.0 4:8.0 5:5.0 6:10.0 7:10.0 8:7.0 9:2.0 10:1.0 
1.0 1:1257200.0 2:10.0 3:10.0 4:10.0 5:7.0 6:10.0 7:10.0 8:8.0 9:2.0 10:1.0 
1.0 1:1258549.0 2:9.0 3:10.0 4:10.0 5:10.0 6:10.0 7:10.0 8:10.0 9:10.0 10:1.0 
1.0 1:1266154.0 2:8.0 3:7.0 4:8.0 5:2.0 6:4.0 7:2.0 8:5.0 9:10.0 10:1.0 
1.0 1:1294562.0 2:10.0 3:8.0 4:10.0 5:1.0 6:3.0 7:10.0 8:5.0 9:1.0 10:1.0 
1.0 1:1295186.0 2:10.0 3:10.0 4:10.0 5:1.0 6:6.0 7:1.0 8:2.0 9:8.0 10:1.0 
1.0 1:608157.0 2:10.0 3:4.0 4:3.0 5:10.0 6:4.0 7:10.0 8:10.0 9:1.0 10:1.0 
1.0 1:1193544.0 2:5.0 3:7.0 4:9.0 5:8.0 6:6.0 7:10.0 8:8.0 9:10.0 10:1.0 
1.0 1:1230994.0 2:4.0 3:5.0 4:5.0 5:8.0 6:6.0 7:10.0 8:10.0 9:7.0 10:1.0 
1.0 1:1246562.0 2:10.0 3:2.0 4:2.0 5:1.0 6:2.0 7:6.0 8:1.0 9:1.0 10:2.0 
1.0 1:1257470.0 2:10.0 3:6.0 4:5.0 5:8.0 6:5.0 7:10.0 8:8.0 9:6.0 10:1.0 
1.0 1:1259008.0 2:8.0 3:8.0 4:9.0 5:6.0 6:6.0 7:3.0 8:10.0 9:10.0 10:1.0 
1.0 1:1296572.0 2:10.0 3:9.0 4:8.0 5:7.0 6:6.0 7:4.0 8:7.0 9:10.0 10:3.0 
1.0 1:1298416.0 2:10.0 3:6.0 4:6.0 5:2.0 6:4.0 7:10.0 8:9.0 9:7.0 10:1.0 
1.0 1:1299596.0 2:6.0 3:6.0 4:6.0 5:5.0 6:4.0 7:10.0 8:7.0 9:6.0 10:2.0 
1.0 1:1299161.0 2:4.0 3:8.0 4:7.0 5:10.0 6:4.0 7:10.0 8:7.0 9:5.0 10:1.0 
1.0 1:1318169.0 2:9.0 3:10.0 4:10.0 5:10.0 6:10.0 7:5.0 8:10.0 9:10.0 10:10.0 
1.0 1:474162.0 2:8.0 3:7.0 4:8.0 5:5.0 6:5.0 7:10.0 8:9.0 9:10.0 10:1.0 
1.0 1:1073960.0 2:10.0 3:10.0 4:10.0 5:10.0 6:6.0 7:10.0 8:8.0 9:1.0 10:5.0 
1.0 1:1076352.0 2:3.0 3:6.0 4:4.0 5:10.0 6:3.0 7:3.0 8:3.0 9:4.0 10:1.0 
1.0 1:1084139.0 2:6.0 3:3.0 4:2.0 5:1.0 6:3.0 7:4.0 8:4.0 9:1.0 10:1.0 
1.0 1:1119189.0 2:5.0 3:8.0 4:9.0 5:4.0 6:3.0 7:10.0 8:7.0 9:1.0 10:1.0 
1.0 1:1142706.0 2:5.0 3:10.0 4:10.0 5:10.0 6:6.0 7:10.0 8:6.0 9:5.0 10:2.0 
1.0 1:1286943.0 2:8.0 3:10.0 4:10.0 5:10.0 6:7.0 7:5.0 8:4.0 9:8.0 10:7.0 
1.0 1:1306282.0 2:6.0 3:6.0 4:7.0 5:10.0 6:3.0 7:10.0 8:8.0 9:10.0 10:2.0 
1.0 1:1313325.0 2:4.0 3:10.0 4:4.0 5:7.0 6:3.0 7:10.0 8:9.0 9:10.0 10:1.0 
1.0 1:1330439.0 2:4.0 3:7.0 4:8.0 5:3.0 6:4.0 7:10.0 8:9.0 9:1.0 10:1.0 
1.0 1:412300.0 2:10.0 3:4.0 4:5.0 5:4.0 6:3.0 7:5.0 8:7.0 9:3.0 10:1.0 
1.0 1:672113.0 2:7.0 3:5.0 4:6.0 5:10.0 6:4.0 7:10.0 8:5.0 9:3.0 10:1.0 
1.0 1:837480.0 2:7.0 3:4.0 4:4.0 5:3.0 6:4.0 7:10.0 8:6.0 9:9.0 10:1.0 
1.0 1:1222464.0 2:6.0 3:10.0 4:10.0 5:10.0 6:4.0 7:10.0 8:7.0 9:10.0 10:1.0 
1.0 1:1241035.0 2:7.0 3:8.0 4:3.0 5:7.0 6:4.0 7:5.0 8:7.0 9:8.0 10:2.0 
1.0 1:1331412.0 2:5.0 3:7.0 4:10.0 5:10.0 6:5.0 7:10.0 8:10.0 9:10.0 10:1.0 
1.0 1:1343068.0 2:8.0 3:4.0 4:4.0 5:1.0 6:6.0 7:10.0 8:2.0 9:5.0 10:2.0 
1.0 1:1343374.0 2:10.0 3:10.0 4:8.0 5:10.0 6:6.0 7:5.0 8:10.0 9:3.0 10:1.0 
1.0 1:1344121.0 2:8.0 3:10.0 4:4.0 5:4.0 6:8.0 7:10.0 8:8.0 9:2.0 10:1.0 
1.0 1:142932.0 2:7.0 3:6.0 4:10.0 5:5.0 6:3.0 7:10.0 8:9.0 9:10.0 10:2.0 
1.0 1:378275.0 2:10.0 3:9.0 4:7.0 5:3.0 6:4.0 7:2.0 8:7.0 9:7.0 10:1.0 
1.0 1:878358.0 2:5.0 3:7.0 4:10.0 5:6.0 6:5.0 7:10.0 8:7.0 9:5.0 10:1.0 
1.0 1:1107684.0 2:6.0 3:10.0 4:5.0 5:5.0 6:4.0 7:10.0 8:6.0 9:10.0 10:1.0 
1.0 1:1254538.0 2:8.0 3:10.0 4:10.0 5:10.0 6:6.0 7:10.0 8:10.0 9:10.0 10:1.0 
1.0 1:1268275.0 2:9.0 3:8.0 4:8.0 5:9.0 6:6.0 7:3.0 8:4.0 9:1.0 10:1.0 
1.0 1:1294261.0 2:4.0 3:10.0 4:8.0 5:5.0 6:4.0 7:1.0 8:10.0 9:1.0 10:1.0 
1.0 1:1295529.0 2:2.0 3:5.0 4:7.0 5:6.0 6:4.0 7:10.0 8:7.0 9:6.0 10:1.0 
1.0 1:1298484.0 2:10.0 3:3.0 4:4.0 5:5.0 6:3.0 7:10.0 8:4.0 9:1.0 10:1.0 
1.0 1:1315506.0 2:4.0 3:8.0 4:6.0 5:3.0 6:4.0 7:10.0 8:7.0 9:1.0 10:1.0 
1.0 1:1352663.0 2:5.0 3:4.0 4:6.0 5:8.0 6:4.0 7:1.0 8:8.0 9:10.0 10:1.0 
1.0 1:188336.0 2:5.0 3:3.0 4:2.0 5:8.0 6:5.0 7:10.0 8:8.0 9:1.0 10:2.0 
1.0 1:352431.0 2:10.0 3:5.0 4:10.0 5:3.0 6:5.0 7:8.0 8:7.0 9:8.0 10:3.0 
1.0 1:557583.0 2:5.0 3:10.0 4:10.0 5:10.0 6:10.0 7:10.0 8:10.0 9:1.0 10:1.0 
1.0 1:736150.0 2:10.0 3:4.0 4:3.0 5:10.0 6:3.0 7:10.0 8:7.0 9:1.0 10:2.0 
1.0 1:803531.0 2:5.0 3:10.0 4:10.0 5:10.0 6:5.0 7:2.0 8:8.0 9:5.0 10:1.0 
1.0 1:822829.0 2:8.0 3:10.0 4:10.0 5:10.0 6:6.0 7:10.0 8:10.0 9:10.0 10:10.0 
1.0 1:1190386.0 2:4.0 3:6.0 4:6.0 5:5.0 6:7.0 7:6.0 8:7.0 9:7.0 10:3.0 
1.0 1:1253955.0 2:8.0 3:7.0 4:4.0 5:4.0 6:5.0 7:3.0 8:5.0 9:10.0 10:1.0 
1.0 1:1268952.0 2:10.0 3:10.0 4:7.0 5:8.0 6:7.0 7:1.0 8:10.0 9:10.0 10:3.0 
1.0 1:1315807.0 2:5.0 3:10.0 4:10.0 5:10.0 6:10.0 7:2.0 8:10.0 9:10.0 10:10.0 
1.0 1:1334015.0 2:7.0 3:8.0 4:8.0 5:7.0 6:3.0 7:10.0 8:7.0 9:2.0 10:3.0 
1.0 1:1350319.0 2:5.0 3:7.0 4:4.0 5:1.0 6:6.0 7:1.0 8:7.0 9:10.0 10:3.0 
1.0 1:1350423.0 2:5.0 3:10.0 4:10.0 5:8.0 6:5.0 7:5.0 8:7.0 9:10.0 10:1.0 
1.0 1:1352848.0 2:3.0 3:10.0 4:7.0 5:8.0 6:5.0 7:8.0 8:7.0 9:4.0 10:1.0 
1.0 1:1369821.0 2:10.0 3:10.0 4:10.0 5:10.0 6:5.0 7:10.0 8:10.0 9:10.0 10:7.0 
1.0 1:1371026.0 2:5.0 3:10.0 4:10.0 5:10.0 6:4.0 7:10.0 8:5.0 9:6.0 10:3.0 
1.0 1:695091.0 2:5.0 3:10.0 4:10.0 5:5.0 6:4.0 7:5.0 8:4.0 9:4.0 10:1.0 
1.0 1:888820.0 2:5.0 3:10.0 4:10.0 5:3.0 6:7.0 7:3.0 8:8.0 9:10.0 10:2.0 
1.0 1:897471.0 2:4.0 3:8.0 4:6.0 5:4.0 6:3.0 7:4.0 8:10.0 9:6.0 10:1.0 
1.0 1:897471.0 2:4.0 3:8.0 4:8.0 5:5.0 6:4.0 7:5.0 8:10.0 9:4.0 10:1.0 
-0.5566018078742989 1:1103722.0 2:1.0 3:1.0 4:1.0 5:1.0 6:2.0 7:1.0 8:2.0 9:1.0 10:2.0 
-0.5527042951594799 1:1105524.0 2:1.0 3:1.0 4:1.0 5:1.0 6:2.0 7:1.0 8:2.0 9:1.0 10:1.0 
-0.5566018078742989 1:1106095.0 2:4.0 3:1.0 4:1.0 5:3.0 6:2.0 7:1.0 8:3.0 9:1.0 10:1.0 
-0.4069598635668711 1:1115293.0 2:1.0 3:1.0 4:1.0 5:1.0 6:2.0 7:2.0 8:2.0 9:1.0 10:1.0 
-0.5563600330432898 1:1116192.0 2:1.0 3:1.0 4:1.0 5:1.0 6:2.0 7:1.0 8:2.0 9:1.0 10:1.0 
-0.5565754245994587 1:1117152.0 2:4.0 3:1.0 4:1.0 5:1.0 6:2.0 7:1.0 8:3.0 9:1.0 10:1.0 
-0.5564284862031426 1:1121732.0 2:1.0 3:1.0 4:1.0 5:1.0 6:2.0 7:1.0 8:3.0 9:2.0 10:1.0 
-0.556426851210205 1:1121919.0 2:5.0 3:1.0 4:3.0 5:1.0 6:2.0 7:1.0 8:2.0 9:1.0 10:1.0 
-0.5563897713731955 1:1124651.0 2:1.0 3:3.0 4:3.0 5:2.0 6:2.0 7:1.0 8:7.0 9:2.0 10:1.0 
-0.556376851223715 1:1131294.0 2:1.0 3:1.0 4:2.0 5:1.0 6:2.0 7:2.0 8:4.0 9:2.0 10:1.0 
-0.5563565537447913 1:1132347.0 2:1.0 3:1.0 4:4.0 5:1.0 6:2.0 7:1.0 8:2.0 9:1.0 10:1.0 
-0.5563491357478161 1:1133041.0 2:5.0 3:3.0 4:1.0 5:2.0 6:2.0 7:1.0 8:2.0 9:1.0 10:1.0 
-0.5563491357478161 1:1133136.0 2:3.0 3:1.0 4:1.0 5:1.0 6:2.0 7:3.0 8:3.0 9:1.0 10:1.0 
-0.5564029421924752 1:1136142.0 2:2.0 3:1.0 4:1.0 5:1.0 6:3.0 7:1.0 8:2.0 9:1.0 10:1.0 
-0.5564037289460345 1:1137156.0 2:2.0 3:2.0 4:2.0 5:1.0 6:1.0 7:1.0 8:7.0 9:1.0 10:1.0 
-0.48983841633740666 1:1143978.0 2:4.0 3:1.0 4:1.0 5:2.0 6:2.0 7:1.0 8:2.0 9:1.0 10:1.0 
-0.48972584237824546 1:1143978.0 2:5.0 3:2.0 4:1.0 5:1.0 6:2.0 7:1.0 8:3.0 9:1.0 10:1.0 
-0.5563844857149467 1:1147044.0 2:3.0 3:1.0 4:1.0 5:1.0 6:2.0 7:2.0 8:7.0 9:1.0 10:1.0 
-0.5564180114539085 1:1152331.0 2:4.0 3:1.0 4:1.0 5:1.0 6:2.0 7:1.0 8:3.0 9:1.0 10:1.0 
-0.556438785389443 1:1155546.0 2:2.0 3:1.0 4:1.0 5:2.0 6:3.0 7:1.0 8:2.0 9:1.0 10:1.0 
-0.5564433659517823 1:1156272.0 2:1.0 3:1.0 4:1.0 5:1.0 6:2.0 7:1.0 8:3.0 9:1.0 10:1.0 
-0.5564344038437186 1:1156948.0 2:3.0 3:1.0 4:1.0 5:2.0 6:2.0 7:1.0 8:1.0 9:1.0 10:1.0 
-0.55642844624367 1:1157734.0 2:4.0 3:1.0 4:1.0 5:1.0 6:2.0 7:1.0 8:3.0 9:1.0 10:1.0 
-0.4064861765702602 1:1158247.0 2:1.0 3:1.0 4:1.0 5:1.0 6:2.0 7:1.0 8:2.0 9:1.0 10:1.0 
-0.5564282530257716 1:1160476.0 2:2.0 3:1.0 4:1.0 5:1.0 6:2.0 7:1.0 8:3.0 9:1.0 10:1.0 
-0.5564282530257657 1:1164066.0 2:1.0 3:1.0 4:1.0 5:1.0 6:2.0 7:1.0 8:3.0 9:1.0 10:1.0 
-0.5564247196817563 1:1165297.0 2:2.0 3:1.0 4:1.0 5:2.0 6:2.0 7:1.0 8:1.0 9:1.0 10:1.0 
-0.5564234005680353 1:1165790.0 2:5.0 3:1.0 4:1.0 5:1.0 6:2.0 7:1.0 8:3.0 9:1.0 10:1.0 
-0.5564234554341905 1:1167471.0 2:4.0 3:1.0 4:2.0 5:1.0 6:2.0 7:1.0 8:3.0 9:1.0 10:1.0 
-0.5564132951258745 1:1171710.0 2:1.0 3:1.0 4:1.0 5:1.0 6:2.0 7:1.0 8:2.0 9:3.0 10:1.0 
-0.5564009023359449 1:1171795.0 2:1.0 3:3.0 4:1.0 5:2.0 6:2.0 7:2.0 8:5.0 9:3.0 10:2.0 
-0.5564017016636442 1:1173235.0 2:3.0 3:3.0 4:2.0 5:1.0 6:2.0 7:3.0 8:3.0 9:1.0 10:1.0 
-0.5564470692714605 1:1173347.0 2:1.0 3:1.0 4:1.0 5:1.0 6:2.0 7:5.0 8:1.0 9:1.0 10:1.0 
-0.5565408085859684 1:1173347.0 2:8.0 3:3.0 4:3.0 5:1.0 6:2.0 7:2.0 8:3.0 9:2.0 10:1.0 
-0.5564441829783915 1:1173514.0 2:1.0 3:1.0 4:1.0 5:1.0 6:4.0 7:3.0 8:1.0 9:1.0 10:1.0 
-0.5564298039234047 1:1173681.0 2:3.0 3:2.0 4:1.0 5:1.0 6:2.0 7:2.0 8:3.0 9:1.0 10:1.0 
-0.5555869833749311 1:1174057.0 2:1.0 3:1.0 4:2.0 5:2.0 6:2.0 7:1.0 8:3.0 9:1.0 10:1.0 
-0.5555405928862017 1:1174057.0 2:4.0 3:2.0 4:1.0 5:1.0 6:2.0 7:2.0 8:3.0 9:1.0 10:1.0 
-0.5564407426040061 1:1176406.0 2:1.0 3:1.0 4:1.0 5:1.0 6:2.0 7:1.0 8:2.0 9:1.0 10:1.0 
-0.5564377289270983 1:1177027.0 2:3.0 3:1.0 4:1.0 5:1.0 6:2.0 7:1.0 8:3.0 9:1.0 10:1.0 
-0.5564377289270885 1:1177512.0 2:1.0 3:1.0 4:1.0 5:1.0 6:10.0 7:1.0 8:1.0 9:1.0 10:1.0 
-0.556448321583903 1:1178580.0 2:5.0 3:1.0 4:3.0 5:1.0 6:2.0 7:1.0 8:2.0 9:1.0 10:1.0 
-0.5564560685221918 1:1179818.0 2:2.0 3:1.0 4:1.0 5:1.0 6:2.0 7:1.0 8:3.0 9:1.0 10:1.0 
-0.5564560685221918 1:1180523.0 2:3.0 3:1.0 4:1.0 5:1.0 6:2.0 7:1.0 8:2.0 9:2.0 10:1.0 
-0.5564560685221918 1:1180831.0 2:3.0 3:1.0 4:1.0 5:1.0 6:3.0 7:1.0 8:2.0 9:1.0 10:1.0 
-0.5564487048786704 1:1181356.0 2:5.0 3:1.0 4:1.0 5:1.0 6:2.0 7:2.0 8:3.0 9:3.0 10:1.0 
-0.23398418725429854 1:1182404.0 2:4.0 3:1.0 4:1.0 5:1.0 6:2.0 7:1.0 8:2.0 9:1.0 10:1.0 
-0.5565963937440292 1:1182410.0 2:3.0 3:1.0 4:1.0 5:1.0 6:2.0 7:1.0 8:1.0 9:1.0 10:1.0 
-0.5564806560013498 1:1183240.0 2:4.0 3:1.0 4:2.0 5:1.0 6:2.0 7:1.0 8:2.0 9:1.0 10:1.0 
-0.5564884414038322 1:1183516.0 2:3.0 3:1.0 4:1.0 5:1.0 6:2.0 7:1.0 8:1.0 9:1.0 10:1.0 
-0.5564880332344364 1:1183911.0 2:2.0 3:1.0 4:1.0 5:1.0 6:2.0 7:1.0 8:1.0 9:1.0 10:1.0 
-0.5564861217482091 1:1184184.0 2:1.0 3:1.0 4:1.0 5:1.0 6:2.0 7:5.0 8:1.0 9:1.0 10:1.0 
-0.5564995771675622 1:1184241.0 2:2.0 3:1.0 4:1.0 5:1.0 6:2.0 7:1.0 8:2.0 9:1.0 10:1.0 
-0.5565354123545728 1:1185610.0 2:1.0 3:1.0 4:1.0 5:1.0 6:3.0 7:2.0 8:2.0 9:1.0 10:1.0 
-0.5565354123545728 1:1187457.0 2:3.0 3:1.0 4:1.0 5:3.0 6:8.0 7:1.0 8:5.0 9:8.0 10:1.0 
-0.5565354123545728 1:1188472.0 2:1.0 3:1.0 4:1.0 5:1.0 6:1.0 7:1.0 8:3.0 9:1.0 10:1.0 
-0.5565318979210444 1:1190394.0 2:4.0 3:1.0 4:1.0 5:1.0 6:2.0 7:3.0 8:1.0 9:1.0 10:1.0 
-0.5565959222303578 1:1190485.0 2:1.0 3:1.0 4:1.0 5:1.0 6:2.0 7:1.0 8:1.0 9:1.0 10:1.0 
-0.5565964015846208 1:1193091.0 2:1.0 3:2.0 4:2.0 5:1.0 6:2.0 7:1.0 8:2.0 9:1.0 10:1.0 
-0.5565964015846208 1:1193210.0 2:2.0 3:1.0 4:1.0 5:1.0 6:2.0 7:1.0 8:3.0 9:1.0 10:1.0 
-0.5565964022174295 1:1197080.0 2:4.0 3:1.0 4:1.0 5:1.0 6:2.0 7:1.0 8:3.0 9:2.0 10:1.0 
-0.5565904628954192 1:1197270.0 2:3.0 3:1.0 4:1.0 5:1.0 6:2.0 7:1.0 8:3.0 9:1.0 10:1.0 
-0.5565904628954002 1:1197440.0 2:1.0 3:1.0 4:1.0 5:2.0 6:1.0 7:3.0 8:1.0 9:1.0 10:7.0 
-0.5565882323920934 1:1197979.0 2:4.0 3:1.0 4:1.0 5:1.0 6:2.0 7:2.0 8:3.0 9:2.0 10:1.0 
-0.5565894997270362 1:1199219.0 2:1.0 3:1.0 4:1.0 5:2.0 6:1.0 7:1.0 8:1.0 9:1.0 10:1.0 
-0.5565894997270362 1:1199731.0 2:3.0 3:1.0 4:1.0 5:1.0 6:2.0 7:1.0 8:1.0 9:1.0 10:1.0 
-0.5566077428393867 1:1199983.0 2:1.0 3:1.0 4:1.0 5:1.0 6:2.0 7:1.0 8:3.0 9:1.0 10:1.0 
-0.5566367431254482 1:1200772.0 2:1.0 3:1.0 4:1.0 5:1.0 6:2.0 7:1.0 8:2.0 9:1.0 10:1.0 
-0.5566367431254482 1:1201834.0 2:2.0 3:1.0 4:1.0 5:1.0 6:2.0 7:1.0 8:3.0 9:1.0 10:1.0 
-0.5566373100865711 1:1202125.0 2:4.0 3:1.0 4:1.0 5:1.0 6:2.0 7:1.0 8:3.0 9:1.0 10:1.0 
-0.5566373100865711 1:1203096.0 2:1.0 3:1.0 4:1.0 5:1.0 6:1.0 7:1.0 8:3.0 9:1.0 10:1.0 
-0.5566373100865711 1:1204242.0 2:1.0 3:1.0 4:1.0 5:1.0 6:2.0 7:1.0 8:1.0 9:1.0 10:1.0 
-0.5566373100865711 1:1204898.0 2:6.0 3:1.0 4:1.0 5:1.0 6:2.0 7:1.0 8:3.0 9:1.0 10:1.0 
-0.5563728105223269 1:1206089.0 2:2.0 3:1.0 4:1.0 5:1.0 6:1.0 7:1.0 8:3.0 9:1.0 10:1.0 
-0.5565894997270362 1:1208301.0 2:1.0 3:2.0 4:3.0 5:1.0 6:2.0 7:1.0 8:3.0 9:1.0 10:1.0 
-0.5565904628954002 1:1212232.0 2:5.0 3:1.0 4:1.0 5:1.0 6:2.0 7:1.0 8:2.0 9:1.0 10:1.0 
-0.5565882174159162 1:1212251.0 2:1.0 3:1.0 4:1.0 5:1.0 6:2.0 7:1.0 8:3.0 9:1.0 10:1.0 
-0.3462892078956051 1:1212422.0 2:3.0 3:1.0 4:1.0 5:1.0 6:2.0 7:1.0 8:3.0 9:1.0 10:1.0 
-0.34636930048485937 1:1212422.0 2:4.0 3:1.0 4:1.0 5:1.0 6:2.0 7:1.0 8:3.0 9:1.0 10:1.0 
-0.5565882323920934 1:1213375.0 2:8.0 3:4.0 4:4.0 5:5.0 6:4.0 7:7.0 8:7.0 9:8.0 10:2.0 
-0.5566373100865711 1:1213383.0 2:5.0 3:1.0 4:1.0 5:4.0 6:2.0 7:1.0 8:3.0 9:1.0 10:1.0 
-0.5566373100865711 1:1214092.0 2:1.0 3:1.0 4:1.0 5:1.0 6:2.0 7:1.0 8:1.0 9:1.0 10:1.0 
-0.5566366522375965 1:1214556.0 2:3.0 3:1.0 4:1.0 5:1.0 6:2.0 7:1.0 8:2.0 9:1.0 10:1.0 
-0.5566366522375965 1:1216947.0 2:1.0 3:1.0 4:1.0 5:1.0 6:2.0 7:1.0 8:3.0 9:1.0 10:1.0 
-0.5565354123545728 1:1217051.0 2:5.0 3:1.0 4:1.0 5:1.0 6:2.0 7:1.0 8:3.0 9:1.0 10:1.0 
-0.5564995771675622 1:1217264.0 2:1.0 3:1.0 4:1.0 5:1.0 6:2.0 7:1.0 8:3.0 9:1.0 10:1.0 
-0.5564880332344364 1:1218860.0 2:1.0 3:1.0 4:1.0 5:1.0 6:1.0 7:1.0 8:3.0 9:1.0 10:1.0 
-0.5564806560013498 1:1219406.0 2:5.0 3:1.0 4:1.0 5:1.0 6:1.0 7:1.0 8:3.0 9:1.0 10:1.0 
-0.5564487048786704 1:1220330.0 2:1.0 3:1.0 4:1.0 5:1.0 6:2.0 7:1.0 8:3.0 9:1.0 10:1.0 
-0.5564560685221918 1:1223282.0 2:1.0 3:1.0 4:1.0 5:1.0 6:2.0 7:1.0 8:2.0 9:1.0 10:1.0 
-0.5564388852175564 1:1223426.0 2:1.0 3:1.0 4:1.0 5:1.0 6:2.0 7:1.0 8:3.0 9:1.0 10:1.0 
-0.5564377289270983 1:1223967.0 2:6.0 3:1.0 4:3.0 5:1.0 6:2.0 7:1.0 8:3.0 9:1.0 10:1.0 
-0.5564470692714607 1:1224329.0 2:1.0 3:1.0 4:1.0 5:2.0 6:2.0 7:1.0 8:3.0 9:1.0 10:1.0 
-0.5564173496709586 1:1227244.0 2:1.0 3:1.0 4:1.0 5:1.0 6:2.0 7:1.0 8:2.0 9:1.0 10:1.0 
-0.5563775504712816 1:1228311.0 2:1.0 3:1.0 4:1.0 5:1.0 6:1.0 7:1.0 8:3.0 9:1.0 10:1.0 
-0.5564029421924752 1:1231706.0 2:8.0 3:4.0 4:6.0 5:3.0 6:3.0 7:1.0 8:4.0 9:3.0 10:1.0 
-0.5563491357478161 1:1236043.0 2:3.0 3:3.0 4:2.0 5:1.0 6:3.0 7:1.0 8:3.0 9:6.0 10:1.0 
-0.5563897713731955 1:1270479.0 2:5.0 3:1.0 4:3.0 5:3.0 6:2.0 7:2.0 8:2.0 9:3.0 10:1.0 
-0.5397075146774497 1:1276091.0 2:3.0 3:1.0 4:1.0 5:3.0 6:1.0 7:1.0 8:3.0 9:1.0 10:1.0 
-0.5563897713731955 1:1277018.0 2:2.0 3:1.0 4:1.0 5:1.0 6:2.0 7:1.0 8:3.0 9:1.0 10:1.0 
-0.5563830924179379 1:128059.0 2:1.0 3:1.0 4:1.0 5:1.0 6:2.0 7:5.0 8:5.0 9:1.0 10:1.0 
-0.5566018078742989 1:1285531.0 2:1.0 3:1.0 4:1.0 5:1.0 6:2.0 7:1.0 8:3.0 9:1.0 10:1.0 
-0.5566018078742989 1:1287775.0 2:5.0 3:1.0 4:1.0 5:2.0 6:2.0 7:2.0 8:3.0 9:1.0 10:1.0 
-0.5565796667848062 1:167528.0 2:4.0 3:1.0 4:1.0 5:1.0 6:2.0 7:1.0 8:3.0 9:6.0 10:1.0 
-0.5565538324565336 1:183913.0 2:1.0 3:2.0 4:2.0 5:1.0 6:2.0 7:1.0 8:1.0 9:1.0 10:1.0 
-0.5565408085859685 1:1017023.0 2:6.0 3:3.0 4:3.0 5:5.0 6:3.0 7:10.0 8:3.0 9:5.0 10:3.0 
-0.16989409308215284 1:1182404.0 2:3.0 3:1.0 4:1.0 5:1.0 6:2.0 7:1.0 8:1.0 9:1.0 10:1.0 
-0.20457477552568457 1:1182404.0 2:3.0 3:1.0 4:1.0 5:1.0 6:2.0 7:1.0 8:2.0 9:1.0 10:1.0 
-0.5567756067648159 1:1198641.0 2:3.0 3:1.0 4:1.0 5:1.0 6:2.0 7:1.0 8:3.0 9:1.0 10:1.0 
-0.556608620478765 1:242970.0 2:5.0 3:7.0 4:7.0 5:1.0 6:5.0 7:8.0 8:3.0 9:4.0 10:1.0 
-0.5555522929621184 1:1182404.0 2:5.0 3:1.0 4:4.0 5:1.0 6:2.0 7:1.0 8:3.0 9:2.0 10:1.0 
-0.5562442273929522 1:385103.0 2:1.0 3:1.0 4:1.0 5:1.0 6:2.0 7:1.0 8:3.0 9:1.0 10:1.0 
-0.556399459244674 1:411453.0 2:5.0 3:1.0 4:1.0 5:1.0 6:2.0 7:1.0 8:3.0 9:1.0 10:1.0 
-0.5565805290279893 1:431495.0 2:3.0 3:1.0 4:1.0 5:1.0 6:2.0 7:1.0 8:3.0 9:2.0 10:1.0 
-0.5565419986412156 1:434518.0 2:3.0 3:1.0 4:1.0 5:1.0 6:2.0 7:1.0 8:2.0 9:1.0 10:1.0 
-0.5564734875071007 1:452264.0 2:1.0 3:1.0 4:1.0 5:1.0 6:2.0 7:1.0 8:2.0 9:1.0 10:1.0 
-0.5564175943674605 1:456282.0 2:1.0 3:1.0 4:1.0 5:1.0 6:2.0 7:1.0 8:3.0 9:1.0 10:1.0 
-0.5564130900338848 1:486283.0 2:3.0 3:1.0 4:1.0 5:1.0 6:2.0 7:1.0 8:3.0 9:1.0 10:1.0 
-0.5564130900338848 1:486662.0 2:2.0 3:1.0 4:1.0 5:2.0 6:2.0 7:1.0 8:3.0 9:1.0 10:1.0 
-0.5563990241353167 1:535331.0 2:3.0 3:1.0 4:1.0 5:1.0 6:3.0 7:1.0 8:2.0 9:1.0 10:1.0 
-0.5304367148479411 1:560680.0 2:1.0 3:1.0 4:1.0 5:1.0 6:2.0 7:1.0 8:1.0 9:1.0 10:1.0 
-0.5563990241353167 1:561477.0 2:1.0 3:1.0 4:1.0 5:1.0 6:2.0 7:1.0 8:3.0 9:1.0 10:1.0 
-0.5563990241353167 1:616240.0 2:5.0 3:3.0 4:4.0 5:3.0 6:4.0 7:5.0 8:4.0 9:7.0 10:1.0 
-0.556390909843263 1:625201.0 2:8.0 3:2.0 4:1.0 5:1.0 6:5.0 7:1.0 8:1.0 9:1.0 10:1.0 
-0.5563892158970154 1:636130.0 2:1.0 3:1.0 4:1.0 5:1.0 6:2.0 7:1.0 8:3.0 9:1.0 10:1.0 
-0.5563745465911358 1:646904.0 2:1.0 3:1.0 4:1.0 5:1.0 6:2.0 7:1.0 8:3.0 9:1.0 10:1.0 
-0.5563693255480757 1:666090.0 2:1.0 3:1.0 4:1.0 5:1.0 6:2.0 7:1.0 8:3.0 9:1.0 10:1.0 
-0.5563693255480757 1:666942.0 2:1.0 3:1.0 4:1.0 5:1.0 6:2.0 7:1.0 8:3.0 9:1.0 10:1.0 
-0.5563693255480757 1:673637.0 2:3.0 3:1.0 4:1.0 5:1.0 6:2.0 7:5.0 8:5.0 9:1.0 10:1.0 
-0.5563639954993767 1:684955.0 2:2.0 3:1.0 4:1.0 5:1.0 6:3.0 7:1.0 8:2.0 9:1.0 10:1.0 
-0.5563576019887483 1:688033.0 2:1.0 3:1.0 4:1.0 5:1.0 6:2.0 7:1.0 8:1.0 9:1.0 10:1.0 
-0.5563576019887483 1:693702.0 2:1.0 3:1.0 4:1.0 5:1.0 6:2.0 7:1.0 8:1.0 9:1.0 10:1.0 
-0.5563499028357085 1:718641.0 2:1.0 3:1.0 4:1.0 5:1.0 6:5.0 7:1.0 8:3.0 9:1.0 10:1.0 
-0.5563364361996932 1:721482.0 2:4.0 3:4.0 4:4.0 5:4.0 6:6.0 7:5.0 8:7.0 9:3.0 10:1.0 
-0.5563340799256915 1:733639.0 2:3.0 3:1.0 4:1.0 5:1.0 6:2.0 7:1.0 8:3.0 9:1.0 10:1.0 
-0.5563340799256915 1:740492.0 2:1.0 3:1.0 4:1.0 5:1.0 6:2.0 7:1.0 8:3.0 9:1.0 10:1.0 
-0.5563340799256915 1:743348.0 2:3.0 3:2.0 4:2.0 5:1.0 6:2.0 7:1.0 8:2.0 9:3.0 10:1.0 
-0.5562433458399512 1:756136.0 2:1.0 3:1.0 4:1.0 5:1.0 6:2.0 7:1.0 8:2.0 9:1.0 10:1.0 
-0.5562433458399512 1:764974.0 2:5.0 3:1.0 4:1.0 5:1.0 6:2.0 7:1.0 8:3.0 9:1.0 10:2.0 
-0.5562433458399512 1:770066.0 2:5.0 3:2.0 4:2.0 5:2.0 6:2.0 7:1.0 8:2.0 9:2.0 10:1.0 
-0.5560603202262093 1:792744.0 2:1.0 3:1.0 4:1.0 5:1.0 6:2.0 7:1.0 8:1.0 9:1.0 10:1.0 
-0.5502896101138195 1:798429.0 2:1.0 3:1.0 4:1.0 5:1.0 6:2.0 7:1.0 8:3.0 9:1.0 10:1.0 
-0.5560526519896396 1:704097.0 2:1.0 3:1.0 4:1.0 5:1.0 6:1.0 7:1.0 8:2.0 9:1.0 10:1.0 
-0.5560526519896396 1:810104.0 2:1.0 3:1.0 4:1.0 5:1.0 6:2.0 7:1.0 8:3.0 9:1.0 10:1.0 
-0.5565408085859685 1:814265.0 2:2.0 3:1.0 4:1.0 5:1.0 6:2.0 7:1.0 8:1.0 9:1.0 10:1.0 
-0.5565538353746299 1:814911.0 2:1.0 3:1.0 4:1.0 5:1.0 6:2.0 7:1.0 8:1.0 9:1.0 10:1.0 
-0.5566018078742989 1:826923.0 2:1.0 3:1.0 4:1.0 5:1.0 6:2.0 7:1.0 8:1.0 9:1.0 10:1.0 
-0.5566018078742989 1:830690.0 2:5.0 3:2.0 4:2.0 5:2.0 6:3.0 7:1.0 8:1.0 9:3.0 10:1.0 
-0.5566018078742989 1:831268.0 2:1.0 3:1.0 4:1.0 5:1.0 6:1.0 7:1.0 8:1.0 9:3.0 10:1.0 
-0.5563897713731955 1:836433.0 2:5.0 3:1.0 4:1.0 5:3.0 6:2.0 7:1.0 8:1.0 9:1.0 10:1.0 
-0.5563696504140643 1:837082.0 2:2.0 3:1.0 4:1.0 5:1.0 6:2.0 7:1.0 8:3.0 9:1.0 10:1.0 
-0.5564459256230341 1:846832.0 2:3.0 3:4.0 4:5.0 5:3.0 6:7.0 7:3.0 8:4.0 9:6.0 10:1.0 
-0.5564076221754561 1:855524.0 2:1.0 3:1.0 4:1.0 5:1.0 6:2.0 7:1.0 8:2.0 9:1.0 10:1.0 
-0.5564433659517823 1:857774.0 2:4.0 3:1.0 4:1.0 5:1.0 6:3.0 7:1.0 8:2.0 9:2.0 10:1.0 
-0.5564344038437186 1:888169.0 2:3.0 3:2.0 4:2.0 5:1.0 6:4.0 7:3.0 8:2.0 9:1.0 10:1.0 
-0.5564285501530977 1:888523.0 2:4.0 3:4.0 4:4.0 5:2.0 6:2.0 7:3.0 8:2.0 9:1.0 10:1.0 
-0.5564234554341905 1:896404.0 2:2.0 3:1.0 4:1.0 5:1.0 6:2.0 7:1.0 8:3.0 9:1.0 10:1.0 
-0.5564134579140811 1:897172.0 2:2.0 3:1.0 4:1.0 5:1.0 6:2.0 7:1.0 8:2.0 9:1.0 10:1.0 
-0.5564017893432263 1:342245.0 2:1.0 3:1.0 4:3.0 5:1.0 6:2.0 7:1.0 8:1.0 9:1.0 10:1.0 
-0.5564470692714607 1:428598.0 2:1.0 3:1.0 4:3.0 5:1.0 6:1.0 7:1.0 8:2.0 9:1.0 10:1.0 
-0.5564388852175763 1:492561.0 2:4.0 3:3.0 4:2.0 5:1.0 6:3.0 7:1.0 8:2.0 9:1.0 10:1.0 
-0.5538167102924126 1:493452.0 2:1.0 3:1.0 4:3.0 5:1.0 6:2.0 7:1.0 8:1.0 9:1.0 10:1.0 
-0.5542254528416632 1:493452.0 2:4.0 3:1.0 4:2.0 5:1.0 6:2.0 7:1.0 8:2.0 9:1.0 10:1.0 
-0.5564560685221918 1:521441.0 2:5.0 3:1.0 4:1.0 5:2.0 6:2.0 7:1.0 8:2.0 9:1.0 10:1.0 
-0.5301485635049797 1:560680.0 2:3.0 3:1.0 4:2.0 5:1.0 6:2.0 7:1.0 8:2.0 9:1.0 10:1.0 
-0.5564583949571626 1:636437.0 2:1.0 3:1.0 4:1.0 5:1.0 6:2.0 7:1.0 8:1.0 9:1.0 10:1.0 
-0.5564572414215632 1:640712.0 2:1.0 3:1.0 4:1.0 5:1.0 6:2.0 7:1.0 8:2.0 9:1.0 10:1.0 
-0.5564880332344364 1:654244.0 2:1.0 3:1.0 4:1.0 5:1.0 6:1.0 7:1.0 8:2.0 9:1.0 10:1.0 
-0.5564995771675622 1:657753.0 2:3.0 3:1.0 4:1.0 5:4.0 6:3.0 7:1.0 8:2.0 9:2.0 10:1.0 
-0.5565354123545728 1:685977.0 2:5.0 3:3.0 4:4.0 5:1.0 6:4.0 7:1.0 8:3.0 9:1.0 10:1.0 
-0.5565383108959969 1:805448.0 2:1.0 3:1.0 4:1.0 5:1.0 6:2.0 7:1.0 8:1.0 9:1.0 10:1.0 
-0.5565964015846208 1:1002504.0 2:3.0 3:2.0 4:2.0 5:2.0 6:2.0 7:1.0 8:3.0 9:2.0 10:1.0 
-0.5565598541536102 1:1022257.0 2:2.0 3:1.0 4:1.0 5:1.0 6:2.0 7:1.0 8:1.0 9:1.0 10:1.0 
-0.5565964022174408 1:1026122.0 2:2.0 3:1.0 4:1.0 5:1.0 6:2.0 7:1.0 8:1.0 9:1.0 10:1.0 
-0.5565964023697899 1:1071084.0 2:3.0 3:3.0 4:2.0 5:2.0 6:3.0 7:1.0 8:1.0 9:2.0 10:3.0 
-0.556621453850537 1:1114570.0 2:5.0 3:3.0 4:3.0 5:2.0 6:3.0 7:1.0 8:3.0 9:1.0 10:1.0 
-0.5563855465503236 1:1114570.0 2:2.0 3:1.0 4:1.0 5:1.0 6:2.0 7:1.0 8:2.0 9:2.0 10:1.0 
-0.5565904628954002 1:1116715.0 2:5.0 3:1.0 4:1.0 5:1.0 6:3.0 7:2.0 8:2.0 9:2.0 10:1.0 
-0.5566508207363046 1:1131411.0 2:1.0 3:1.0 4:1.0 5:2.0 6:2.0 7:1.0 8:2.0 9:1.0 10:1.0 
-0.5566508207363046 1:1156017.0 2:3.0 3:1.0 4:1.0 5:1.0 6:2.0 7:1.0 8:2.0 9:1.0 10:1.0 
-0.4070326092135027 1:1158247.0 2:1.0 3:1.0 4:1.0 5:1.0 6:1.0 7:1.0 8:1.0 9:1.0 10:1.0 
-0.5566367431254482 1:1158405.0 2:1.0 3:2.0 4:3.0 5:1.0 6:2.0 7:1.0 8:2.0 9:1.0 10:1.0 
-0.5566373100865711 1:1168278.0 2:3.0 3:1.0 4:1.0 5:1.0 6:2.0 7:1.0 8:2.0 9:1.0 10:1.0 
-0.5566373100865711 1:1176187.0 2:3.0 3:1.0 4:1.0 5:1.0 6:2.0 7:1.0 8:3.0 9:1.0 10:1.0 
-0.5563738906698293 1:1196263.0 2:4.0 3:1.0 4:1.0 5:1.0 6:2.0 7:1.0 8:1.0 9:1.0 10:1.0 
-0.5565354123545728 1:1196475.0 2:3.0 3:2.0 4:1.0 5:1.0 6:2.0 7:1.0 8:2.0 9:2.0 10:1.0 
-0.5564808317347201 1:1206314.0 2:1.0 3:2.0 4:3.0 5:1.0 6:2.0 7:1.0 8:1.0 9:1.0 10:1.0 
-0.5564560685221918 1:1213784.0 2:3.0 3:1.0 4:1.0 5:1.0 6:2.0 7:1.0 8:1.0 9:1.0 10:1.0 
-0.5564377289270885 1:1223003.0 2:5.0 3:3.0 4:3.0 5:1.0 6:2.0 7:1.0 8:2.0 9:1.0 10:1.0 
-0.5563491357478161 1:1223306.0 2:3.0 3:1.0 4:1.0 5:1.0 6:2.0 7:4.0 8:1.0 9:1.0 10:1.0 
-0.556376851223715 1:1223543.0 2:1.0 3:2.0 4:1.0 5:3.0 6:2.0 7:1.0 8:1.0 9:2.0 10:1.0 
-0.5563565537447913 1:1229929.0 2:1.0 3:1.0 4:1.0 5:1.0 6:2.0 7:1.0 8:2.0 9:1.0 10:1.0 
-0.5565759757523135 1:1231853.0 2:4.0 3:2.0 4:2.0 5:1.0 6:2.0 7:1.0 8:2.0 9:1.0 10:1.0 
-0.5566018078742989 1:1234554.0 2:1.0 3:1.0 4:1.0 5:1.0 6:2.0 7:1.0 8:2.0 9:1.0 10:1.0 
-0.5566018078742989 1:1236837.0 2:2.0 3:3.0 4:2.0 5:2.0 6:2.0 7:2.0 8:3.0 9:1.0 10:1.0 
-0.5565860978041604 1:1237674.0 2:3.0 3:1.0 4:2.0 5:1.0 6:2.0 7:1.0 8:2.0 9:1.0 10:1.0 
-0.5565796667848062 1:1238021.0 2:1.0 3:1.0 4:1.0 5:1.0 6:2.0 7:1.0 8:2.0 9:1.0 10:1.0 
-0.5565408085859685 1:1238915.0 2:5.0 3:1.0 4:2.0 5:1.0 6:2.0 7:1.0 8:3.0 9:1.0 10:1.0 
-0.5565408085859685 1:1239232.0 2:3.0 3:3.0 4:2.0 5:6.0 6:3.0 7:3.0 8:3.0 9:5.0 10:1.0 
-0.5565408085859685 1:1239967.0 2:1.0 3:1.0 4:1.0 5:1.0 6:2.0 7:1.0 8:2.0 9:1.0 10:1.0 
-0.5565217967701802 1:1240337.0 2:5.0 3:2.0 4:2.0 5:2.0 6:2.0 7:2.0 8:3.0 9:2.0 10:2.0 
-0.556018262338511 1:1253505.0 2:2.0 3:3.0 4:1.0 5:1.0 6:5.0 7:1.0 8:1.0 9:1.0 10:1.0 
-0.5560526519896396 1:1255384.0 2:3.0 3:2.0 4:2.0 5:3.0 6:2.0 7:3.0 8:3.0 9:1.0 10:1.0 
-0.5560526519896396 1:1257648.0 2:4.0 3:3.0 4:3.0 5:1.0 6:2.0 7:1.0 8:3.0 9:3.0 10:1.0 
-0.5560526519896396 1:1257815.0 2:5.0 3:1.0 4:3.0 5:1.0 6:2.0 7:1.0 8:2.0 9:1.0 10:1.0 
-0.5560603202262093 1:1257938.0 2:3.0 3:1.0 4:1.0 5:1.0 6:2.0 7:1.0 8:1.0 9:1.0 10:1.0 
-0.5560678616248177 1:1258556.0 2:5.0 3:3.0 4:6.0 5:1.0 6:2.0 7:1.0 8:1.0 9:1.0 10:1.0 
-0.5560756724458252 1:1272039.0 2:1.0 3:1.0 4:1.0 5:1.0 6:2.0 7:1.0 8:2.0 9:1.0 10:1.0 
-0.5137453759160905 1:1276091.0 2:2.0 3:1.0 4:1.0 5:1.0 6:2.0 7:1.0 8:2.0 9:1.0 10:1.0 
-0.530609170121454 1:1276091.0 2:1.0 3:3.0 4:1.0 5:1.0 6:2.0 7:1.0 8:2.0 9:2.0 10:1.0 
-0.5521938294150965 1:1276091.0 2:5.0 3:1.0 4:1.0 5:3.0 6:4.0 7:1.0 8:3.0 9:2.0 10:1.0 
-0.5566367431254482 1:1277629.0 2:5.0 3:1.0 4:1.0 5:1.0 6:2.0 7:1.0 8:2.0 9:2.0 10:1.0 
-0.5562433458399512 1:1293439.0 2:3.0 3:2.0 4:2.0 5:3.0 6:2.0 7:1.0 8:1.0 9:1.0 10:1.0 
-0.5565796667848062 1:1293439.0 2:6.0 3:9.0 4:7.0 5:5.0 6:5.0 7:8.0 8:4.0 9:2.0 10:1.0 
-0.5563693255480757 1:527337.0 2:4.0 3:1.0 4:1.0 5:1.0 6:2.0 7:1.0 8:1.0 9:1.0 10:1.0 
-0.5563693255480757 1:558538.0 2:4.0 3:1.0 4:3.0 5:3.0 6:2.0 7:1.0 8:1.0 9:1.0 10:1.0 
-0.5563892158970154 1:566509.0 2:5.0 3:1.0 4:1.0 5:1.0 6:2.0 7:1.0 8:1.0 9:1.0 10:1.0 
-0.5566373100865711 1:677910.0 2:5.0 3:2.0 4:2.0 5:4.0 6:2.0 7:4.0 8:1.0 9:1.0 10:1.0 
-0.5145787813834186 1:734111.0 2:1.0 3:1.0 4:1.0 5:3.0 6:2.0 7:3.0 8:1.0 9:1.0 10:1.0 
-0.5141780564761899 1:734111.0 2:1.0 3:1.0 4:1.0 5:1.0 6:2.0 7:2.0 8:1.0 9:1.0 10:1.0 
-0.5565904622863316 1:780555.0 2:5.0 3:1.0 4:1.0 5:6.0 6:3.0 7:1.0 8:2.0 9:1.0 10:1.0 
-0.5565318979210444 1:827627.0 2:2.0 3:1.0 4:1.0 5:1.0 6:2.0 7:1.0 8:1.0 9:1.0 10:1.0 
-0.5564029421924752 1:1049837.0 2:1.0 3:1.0 4:1.0 5:1.0 6:2.0 7:1.0 8:1.0 9:1.0 10:1.0 
-0.5564172549682239 1:1058849.0 2:5.0 3:1.0 4:1.0 5:1.0 6:2.0 7:1.0 8:1.0 9:1.0 10:1.0 
-0.5298645240080844 1:1182404.0 2:1.0 3:1.0 4:1.0 5:1.0 6:1.0 7:1.0 8:1.0 9:1.0 10:1.0 
-0.5566018078742989 1:1201870.0 2:4.0 3:1.0 4:1.0 5:3.0 6:1.0 7:1.0 8:2.0 9:1.0 10:1.0 
-0.5562433458399512 1:1202253.0 2:5.0 3:1.0 4:1.0 5:1.0 6:2.0 7:1.0 8:1.0 9:1.0 10:1.0 
-0.5564479091741692 1:1227081.0 2:3.0 3:1.0 4:1.0 5:3.0 6:2.0 7:1.0 8:1.0 9:1.0 10:1.0 
-0.5565882323920934 1:1238410.0 2:2.0 3:3.0 4:1.0 5:1.0 6:3.0 7:1.0 8:1.0 9:1.0 10:1.0 
-0.5566366522375965 1:1266124.0 2:5.0 3:1.0 4:2.0 5:1.0 6:2.0 7:1.0 8:1.0 9:1.0 10:1.0 
-0.5564808317347201 1:1267898.0 2:5.0 3:1.0 4:3.0 5:1.0 6:2.0 7:1.0 8:1.0 9:1.0 10:1.0 
-0.5560141080731402 1:1268313.0 2:5.0 3:1.0 4:1.0 5:3.0 6:2.0 7:1.0 8:1.0 9:1.0 10:1.0 
-0.5565705204133353 1:1268804.0 2:3.0 3:1.0 4:1.0 5:1.0 6:2.0 7:5.0 8:1.0 9:1.0 10:1.0 
-0.5521641662759074 1:1276091.0 2:6.0 3:1.0 4:1.0 5:3.0 6:2.0 7:1.0 8:1.0 9:1.0 10:1.0 
-0.5563340799256915 1:1280258.0 2:4.0 3:1.0 4:1.0 5:1.0 6:2.0 7:1.0 8:1.0 9:2.0 10:1.0 
-0.5563990241353167 1:1293966.0 2:4.0 3:1.0 4:1.0 5:1.0 6:2.0 7:1.0 8:1.0 9:1.0 10:1.0 
-0.5526534582247487 1:1105524.0 2:4.0 3:1.0 4:1.0 5:1.0 6:2.0 7:1.0 8:1.0 9:1.0 10:1.0 
-0.5563693255480757 1:1181685.0 2:1.0 3:1.0 4:2.0 5:1.0 6:2.0 7:1.0 8:2.0 9:1.0 10:1.0 
-0.5563844857149467 1:1211594.0 2:3.0 3:1.0 4:1.0 5:1.0 6:1.0 7:1.0 8:2.0 9:1.0 10:1.0 
-0.5565956421979783 1:1238777.0 2:6.0 3:1.0 4:1.0 5:3.0 6:2.0 7:1.0 8:1.0 9:1.0 10:1.0 
-0.5565964022174408 1:1257608.0 2:6.0 3:1.0 4:1.0 5:1.0 6:1.0 7:1.0 8:1.0 9:1.0 10:1.0 
-0.5566367431254482 1:1269574.0 2:4.0 3:1.0 4:1.0 5:1.0 6:2.0 7:1.0 8:1.0 9:1.0 10:1.0 
-0.5564282530257657 1:1277145.0 2:5.0 3:1.0 4:1.0 5:1.0 6:2.0 7:1.0 8:1.0 9:1.0 10:1.0 
-0.5564285031136309 1:1287282.0 2:3.0 3:1.0 4:1.0 5:1.0 6:2.0 7:1.0 8:1.0 9:1.0 10:1.0 
-0.5565904628954002 1:1296025.0 2:4.0 3:1.0 4:2.0 5:1.0 6:2.0 7:1.0 8:1.0 9:1.0 10:1.0 
-0.5565894997270362 1:1296263.0 2:4.0 3:1.0 4:1.0 5:1.0 6:2.0 7:1.0 8:1.0 9:1.0 10:1.0 
-0.5564388852175564 1:1296593.0 2:5.0 3:2.0 4:1.0 5:1.0 6:2.0 7:1.0 8:1.0 9:1.0 10:1.0 
-0.5563491357478161 1:1301945.0 2:5.0 3:1.0 4:1.0 5:1.0 6:1.0 7:1.0 8:1.0 9:1.0 10:1.0 
-0.5562433458399512 1:1302428.0 2:5.0 3:3.0 4:2.0 5:4.0 6:2.0 7:1.0 8:1.0 9:1.0 10:1.0 
-0.5565538324565336 1:787451.0 2:5.0 3:1.0 4:2.0 5:1.0 6:2.0 7:1.0 8:1.0 9:1.0 10:1.0 
-0.5563340799256915 1:1002025.0 2:1.0 3:1.0 4:1.0 5:3.0 6:1.0 7:3.0 8:1.0 9:1.0 10:1.0 
-0.5563340799256915 1:1070522.0 2:3.0 3:1.0 4:1.0 5:1.0 6:1.0 7:1.0 8:2.0 9:1.0 10:1.0 
-0.4068855094111221 1:1115293.0 2:1.0 3:1.0 4:1.0 5:1.0 6:2.0 7:1.0 8:1.0 9:1.0 10:1.0 
-0.5563990241353167 1:1133991.0 2:4.0 3:1.0 4:1.0 5:1.0 6:1.0 7:1.0 8:2.0 9:1.0 10:1.0 
-0.5563990241353167 1:1155967.0 2:5.0 3:1.0 4:2.0 5:10.0 6:4.0 7:5.0 8:2.0 9:1.0 10:1.0 
-0.5564130900338848 1:1170945.0 2:3.0 3:1.0 4:1.0 5:1.0 6:1.0 7:1.0 8:2.0 9:1.0 10:1.0 
-0.5565964015846208 1:1181567.0 2:1.0 3:1.0 4:1.0 5:1.0 6:1.0 7:1.0 8:1.0 9:1.0 10:1.0 
-0.360144430987158 1:1182404.0 2:4.0 3:2.0 4:1.0 5:1.0 6:2.0 7:1.0 8:1.0 9:1.0 10:1.0 
-0.556426851210205 1:1204558.0 2:4.0 3:1.0 4:1.0 5:1.0 6:2.0 7:1.0 8:2.0 9:1.0 10:1.0 
-0.5564344038437186 1:1217952.0 2:4.0 3:1.0 4:1.0 5:1.0 6:2.0 7:1.0 8:2.0 9:1.0 10:1.0 
-0.5564282530257716 1:1224565.0 2:6.0 3:1.0 4:1.0 5:1.0 6:2.0 7:1.0 8:3.0 9:1.0 10:1.0 
-0.5564234005680353 1:1238186.0 2:4.0 3:1.0 4:1.0 5:1.0 6:2.0 7:1.0 8:2.0 9:1.0 10:1.0 
-0.5565964023697899 1:1253917.0 2:4.0 3:1.0 4:1.0 5:2.0 6:2.0 7:1.0 8:2.0 9:1.0 10:1.0 
-0.5565904628954192 1:1265899.0 2:4.0 3:1.0 4:1.0 5:1.0 6:2.0 7:1.0 8:3.0 9:1.0 10:1.0 
-0.5562433458399512 1:1268766.0 2:1.0 3:1.0 4:1.0 5:1.0 6:2.0 7:1.0 8:1.0 9:1.0 10:1.0 
-0.5562433458399512 1:1277268.0 2:3.0 3:3.0 4:1.0 5:1.0 6:2.0 7:1.0 8:1.0 9:1.0 10:1.0 
-0.5562433458399512 1:1295508.0 2:1.0 3:1.0 4:1.0 5:1.0 6:2.0 7:4.0 8:1.0 9:1.0 10:1.0 
-0.5562433458399512 1:1297327.0 2:5.0 3:1.0 4:1.0 5:1.0 6:2.0 7:1.0 8:1.0 9:1.0 10:1.0 
-0.5563340799256915 1:1297522.0 2:2.0 3:1.0 4:1.0 5:1.0 6:2.0 7:1.0 8:1.0 9:1.0 10:1.0 
-0.5563340799256915 1:1298360.0 2:1.0 3:1.0 4:1.0 5:1.0 6:2.0 7:1.0 8:1.0 9:1.0 10:1.0 
-0.5549969852231668 1:1299924.0 2:5.0 3:1.0 4:1.0 5:1.0 6:2.0 7:1.0 8:2.0 9:1.0 10:1.0 
-0.5563340799256915 1:1299994.0 2:5.0 3:1.0 4:1.0 5:1.0 6:2.0 7:1.0 8:1.0 9:1.0 10:1.0 
-0.5563340799256915 1:1304595.0 2:3.0 3:1.0 4:1.0 5:1.0 6:1.0 7:1.0 8:2.0 9:1.0 10:1.0 
-0.3462881277481026 1:1320077.0 2:1.0 3:1.0 4:1.0 5:1.0 6:1.0 7:1.0 8:1.0 9:1.0 10:1.0 
-0.346372862209146 1:1320077.0 2:1.0 3:1.0 4:1.0 5:1.0 6:1.0 7:1.0 8:2.0 9:1.0 10:1.0 
-0.5563340799256915 1:1320304.0 2:3.0 3:1.0 4:2.0 5:2.0 6:2.0 7:1.0 8:1.0 9:1.0 10:1.0 
-0.5563340799256915 1:333093.0 2:1.0 3:1.0 4:1.0 5:1.0 6:3.0 7:1.0 8:1.0 9:1.0 10:1.0 
-0.5563364361996932 1:369565.0 2:4.0 3:1.0 4:1.0 5:1.0 6:3.0 7:1.0 8:1.0 9:1.0 10:1.0 
-0.5563364361996932 1:749653.0 2:3.0 3:1.0 4:1.0 5:1.0 6:2.0 7:1.0 8:2.0 9:1.0 10:1.0 
-0.40695597033744946 1:769612.0 2:3.0 3:1.0 4:1.0 5:2.0 6:2.0 7:1.0 8:1.0 9:1.0 10:1.0 
-0.40686523707964306 1:769612.0 2:4.0 3:1.0 4:1.0 5:1.0 6:2.0 7:1.0 8:1.0 9:1.0 10:1.0 
-0.5502699271496155 1:798429.0 2:4.0 3:1.0 4:1.0 5:1.0 6:2.0 7:1.0 8:3.0 9:1.0 10:1.0 
-0.5563499028357085 1:807657.0 2:6.0 3:1.0 4:3.0 5:2.0 6:2.0 7:1.0 8:1.0 9:1.0 10:1.0 
-0.5563576019887483 1:8233704.0 2:4.0 3:1.0 4:1.0 5:1.0 6:1.0 7:1.0 8:2.0 9:1.0 10:1.0 
-0.5563576019887483 1:867392.0 2:4.0 3:2.0 4:2.0 5:1.0 6:2.0 7:1.0 8:2.0 9:1.0 10:1.0 
-0.5563576019887483 1:869828.0 2:1.0 3:1.0 4:1.0 5:1.0 6:1.0 7:1.0 8:3.0 9:1.0 10:1.0 
-0.5563639954993767 1:1043068.0 2:3.0 3:1.0 4:1.0 5:1.0 6:2.0 7:1.0 8:2.0 9:1.0 10:1.0 
-0.5563667465155296 1:1056171.0 2:2.0 3:1.0 4:1.0 5:1.0 6:2.0 7:1.0 8:2.0 9:1.0 10:1.0 
-0.556073741395277 1:1061990.0 2:1.0 3:1.0 4:3.0 5:2.0 6:2.0 7:1.0 8:3.0 9:1.0 10:1.0 
-0.556608620478765 1:1113061.0 2:5.0 3:1.0 4:1.0 5:1.0 6:2.0 7:1.0 8:3.0 9:1.0 10:1.0 
-0.556369478857518 1:1116192.0 2:5.0 3:1.0 4:2.0 5:1.0 6:2.0 7:1.0 8:3.0 9:1.0 10:1.0 
-0.5562433458399512 1:1135090.0 2:4.0 3:1.0 4:1.0 5:1.0 6:2.0 7:1.0 8:2.0 9:1.0 10:1.0 
-0.5562433458399512 1:1145420.0 2:6.0 3:1.0 4:1.0 5:1.0 6:2.0 7:1.0 8:2.0 9:1.0 10:1.0 
-0.5564008739286692 1:1158157.0 2:5.0 3:1.0 4:1.0 5:1.0 6:2.0 7:2.0 8:2.0 9:1.0 10:1.0 
-0.5564234005680353 1:1171578.0 2:3.0 3:1.0 4:1.0 5:1.0 6:2.0 7:1.0 8:1.0 9:1.0 10:1.0 
-0.5563693255480757 1:1174841.0 2:5.0 3:3.0 4:1.0 5:1.0 6:2.0 7:1.0 8:1.0 9:1.0 10:1.0 
-0.5563693255480757 1:1184586.0 2:4.0 3:1.0 4:1.0 5:1.0 6:2.0 7:1.0 8:2.0 9:1.0 10:1.0 
-0.5563693255480757 1:1186936.0 2:2.0 3:1.0 4:3.0 5:2.0 6:2.0 7:1.0 8:2.0 9:1.0 10:1.0 
-0.5563693255480757 1:1197527.0 2:5.0 3:1.0 4:1.0 5:1.0 6:2.0 7:1.0 8:2.0 9:1.0 10:1.0 
-0.3462714194302721 1:1240603.0 2:2.0 3:1.0 4:1.0 5:1.0 6:1.0 7:1.0 8:1.0 9:1.0 10:1.0 
-0.34637329246616244 1:1240603.0 2:3.0 3:1.0 4:1.0 5:1.0 6:1.0 7:1.0 8:1.0 9:1.0 10:1.0 
-0.5563693255480757 1:1287971.0 2:3.0 3:1.0 4:1.0 5:1.0 6:2.0 7:1.0 8:2.0 9:1.0 10:1.0 
-0.5563693255480757 1:1289391.0 2:1.0 3:1.0 4:1.0 5:1.0 6:2.0 7:1.0 8:3.0 9:1.0 10:1.0 
-0.5547073514543578 1:1299924.0 2:3.0 3:2.0 4:2.0 5:2.0 6:2.0 7:1.0 8:4.0 9:2.0 10:1.0 
-0.5563712422453913 1:1306339.0 2:4.0 3:4.0 4:2.0 5:1.0 6:2.0 7:5.0 8:2.0 9:1.0 10:2.0 
-0.5563719673382248 1:1313658.0 2:3.0 3:1.0 4:1.0 5:1.0 6:2.0 7:1.0 8:1.0 9:1.0 10:1.0 
-0.5563745465911358 1:1313982.0 2:4.0 3:3.0 4:1.0 5:1.0 6:2.0 7:1.0 8:4.0 9:8.0 10:1.0 
-0.5563779254333723 1:1321264.0 2:5.0 3:2.0 4:2.0 5:2.0 6:1.0 7:1.0 8:2.0 9:1.0 10:1.0 
-0.5563892158970154 1:1321321.0 2:5.0 3:1.0 4:1.0 5:3.0 6:2.0 7:1.0 8:1.0 9:1.0 10:1.0 
-0.5563892158970154 1:1321348.0 2:2.0 3:1.0 4:1.0 5:1.0 6:2.0 7:1.0 8:2.0 9:1.0 10:1.0 
-0.556390909843263 1:1321931.0 2:5.0 3:1.0 4:1.0 5:1.0 6:2.0 7:1.0 8:2.0 9:1.0 10:1.0 
-0.5563926028551183 1:1321942.0 2:5.0 3:1.0 4:1.0 5:1.0 6:2.0 7:1.0 8:3.0 9:1.0 10:1.0 
-0.5563990241353167 1:1328331.0 2:1.0 3:1.0 4:1.0 5:1.0 6:2.0 7:1.0 8:3.0 9:1.0 10:1.0 
-0.5563990241353167 1:1328755.0 2:3.0 3:1.0 4:1.0 5:1.0 6:2.0 7:1.0 8:2.0 9:1.0 10:1.0 
-0.5563990241353167 1:1331405.0 2:4.0 3:1.0 4:1.0 5:1.0 6:2.0 7:1.0 8:3.0 9:2.0 10:1.0 
-0.5563990241353167 1:1333104.0 2:3.0 3:1.0 4:2.0 5:1.0 6:2.0 7:1.0 8:3.0 9:1.0 10:1.0 
-0.5563990241353167 1:1334071.0 2:4.0 3:1.0 4:1.0 5:1.0 6:2.0 7:3.0 8:2.0 9:1.0 10:1.0 
-0.5563990241353167 1:183936.0 2:3.0 3:1.0 4:1.0 5:1.0 6:2.0 7:1.0 8:2.0 9:1.0 10:1.0 
-0.5564130900338848 1:324382.0 2:1.0 3:1.0 4:1.0 5:1.0 6:2.0 7:1.0 8:2.0 9:1.0 10:1.0 
-0.5564300852439074 1:385103.0 2:5.0 3:1.0 4:2.0 5:1.0 6:2.0 7:1.0 8:3.0 9:1.0 10:1.0 
-0.5564130900338848 1:690557.0 2:5.0 3:1.0 4:1.0 5:1.0 6:2.0 7:1.0 8:2.0 9:1.0 10:1.0 
-0.5564130900338848 1:695091.0 2:1.0 3:1.0 4:1.0 5:1.0 6:2.0 7:1.0 8:2.0 9:1.0 10:1.0 
-0.5564175943674605 1:695219.0 2:1.0 3:1.0 4:1.0 5:1.0 6:2.0 7:1.0 8:2.0 9:1.0 10:1.0 
-0.5564222048541769 1:824249.0 2:1.0 3:1.0 4:1.0 5:1.0 6:2.0 7:1.0 8:3.0 9:1.0 10:1.0 
-0.5564734875071007 1:871549.0 2:5.0 3:1.0 4:2.0 5:1.0 6:2.0 7:1.0 8:2.0 9:1.0 10:1.0 
-0.5565419986412156 1:1115762.0 2:3.0 3:1.0 4:1.0 5:1.0 6:2.0 7:1.0 8:1.0 9:1.0 10:1.0 
-0.5565428368986307 1:1217717.0 2:5.0 3:1.0 4:1.0 5:6.0 6:3.0 7:1.0 8:1.0 9:1.0 10:1.0 
-0.5565805290279893 1:1239420.0 2:1.0 3:1.0 4:1.0 5:1.0 6:2.0 7:1.0 8:1.0 9:1.0 10:1.0 
-0.556608620478765 1:1261751.0 2:5.0 3:1.0 4:1.0 5:1.0 6:2.0 7:1.0 8:2.0 9:2.0 10:1.0 
-0.556608620478765 1:1272166.0 2:5.0 3:1.0 4:1.0 5:1.0 6:2.0 7:1.0 8:1.0 9:1.0 10:1.0 
-0.556696160059218 1:1311875.0 2:5.0 3:1.0 4:2.0 5:1.0 6:2.0 7:1.0 8:1.0 9:1.0 10:1.0 
-0.5567165124629743 1:1320141.0 2:5.0 3:1.0 4:1.0 5:1.0 6:2.0 7:1.0 8:2.0 9:1.0 10:1.0 
-0.5567756067648159 1:1325309.0 2:4.0 3:1.0 4:2.0 5:1.0 6:2.0 7:1.0 8:2.0 9:1.0 10:1.0 
-0.5569328595458314 1:1333063.0 2:5.0 3:1.0 4:3.0 5:1.0 6:2.0 7:1.0 8:3.0 9:1.0 10:1.0 
-0.5565408085859685 1:1333495.0 2:3.0 3:1.0 4:1.0 5:1.0 6:2.0 7:1.0 8:2.0 9:1.0 10:1.0 
-0.5565408085859685 1:1334659.0 2:5.0 3:2.0 4:4.0 5:1.0 6:1.0 7:1.0 8:1.0 9:1.0 10:1.0 
-0.5565538353746299 1:1336798.0 2:3.0 3:1.0 4:1.0 5:1.0 6:2.0 7:1.0 8:2.0 9:1.0 10:1.0 
-0.5565796667848062 1:1344449.0 2:1.0 3:1.0 4:1.0 5:1.0 6:1.0 7:1.0 8:2.0 9:1.0 10:1.0 
-0.5566018078742989 1:1350568.0 2:4.0 3:1.0 4:1.0 5:1.0 6:2.0 7:1.0 8:2.0 9:1.0 10:1.0 
-0.5566018078742989 1:353098.0 2:4.0 3:1.0 4:1.0 5:2.0 6:2.0 7:1.0 8:1.0 9:1.0 10:1.0 
-0.5563981385770705 1:411453.0 2:1.0 3:1.0 4:1.0 5:1.0 6:2.0 7:1.0 8:1.0 9:1.0 10:1.0 
-0.5566018078742989 1:636375.0 2:5.0 3:1.0 4:1.0 5:1.0 6:2.0 7:1.0 8:1.0 9:1.0 10:1.0 
-0.5566018078742989 1:1016634.0 2:2.0 3:3.0 4:1.0 5:1.0 6:2.0 7:1.0 8:2.0 9:1.0 10:1.0 
-0.556426851210205 1:1031608.0 2:2.0 3:1.0 4:1.0 5:1.0 6:1.0 7:1.0 8:2.0 9:1.0 10:1.0 
-0.556426851210205 1:1041043.0 2:4.0 3:1.0 4:3.0 5:1.0 6:2.0 7:1.0 8:2.0 9:1.0 10:1.0 
-0.5564284862031426 1:1042252.0 2:3.0 3:1.0 4:1.0 5:1.0 6:2.0 7:1.0 8:2.0 9:1.0 10:1.0 
-0.5560850471642089 1:1061990.0 2:4.0 3:1.0 4:1.0 5:1.0 6:2.0 7:1.0 8:2.0 9:1.0 10:1.0 
-0.5564286944903726 1:1073836.0 2:5.0 3:1.0 4:1.0 5:1.0 6:2.0 7:1.0 8:2.0 9:1.0 10:1.0 
-0.5565754245994587 1:1083817.0 2:3.0 3:1.0 4:1.0 5:1.0 6:2.0 7:1.0 8:2.0 9:1.0 10:1.0 
-0.5565976803228923 1:1096352.0 2:6.0 3:3.0 4:3.0 5:3.0 6:3.0 7:2.0 8:6.0 9:1.0 10:1.0 
-0.5563491357478161 1:1140597.0 2:7.0 3:1.0 4:2.0 5:3.0 6:2.0 7:1.0 8:2.0 9:1.0 10:1.0 
-0.5563696504140643 1:1149548.0 2:1.0 3:1.0 4:1.0 5:1.0 6:2.0 7:1.0 8:1.0 9:1.0 10:1.0 
-0.5564029421924752 1:1174009.0 2:5.0 3:1.0 4:1.0 5:2.0 6:1.0 7:1.0 8:2.0 9:1.0 10:1.0 
-0.5564459256230341 1:1183596.0 2:3.0 3:1.0 4:3.0 5:1.0 6:3.0 7:4.0 8:1.0 9:1.0 10:1.0 
-0.5563915915835744 1:1190546.0 2:2.0 3:1.0 4:1.0 5:1.0 6:2.0 7:5.0 8:1.0 9:1.0 10:1.0 
-0.5563928967432556 1:1213273.0 2:2.0 3:1.0 4:1.0 5:1.0 6:2.0 7:1.0 8:1.0 9:1.0 10:1.0 
-0.5564180114539085 1:1218982.0 2:4.0 3:1.0 4:1.0 5:1.0 6:2.0 7:1.0 8:1.0 9:1.0 10:1.0 
-0.5564344038437186 1:1225382.0 2:6.0 3:2.0 4:3.0 5:1.0 6:2.0 7:1.0 8:1.0 9:1.0 10:1.0 
-0.5560141080731402 1:1235807.0 2:5.0 3:1.0 4:1.0 5:1.0 6:2.0 7:1.0 8:2.0 9:1.0 10:1.0 
-0.5564170689532446 1:1238777.0 2:1.0 3:1.0 4:1.0 5:1.0 6:2.0 7:1.0 8:1.0 9:1.0 10:1.0 
-0.5560526519896396 1:1257366.0 2:3.0 3:1.0 4:1.0 5:1.0 6:2.0 7:1.0 8:1.0 9:1.0 10:1.0 
-0.5565959222303578 1:1260659.0 2:3.0 3:1.0 4:4.0 5:1.0 6:2.0 7:1.0 8:1.0 9:1.0 10:1.0 
-0.5565882323920934 1:1275807.0 2:4.0 3:2.0 4:4.0 5:3.0 6:2.0 7:2.0 8:2.0 9:1.0 10:1.0 
-0.5141375846533458 1:1277792.0 2:4.0 3:1.0 4:1.0 5:1.0 6:2.0 7:1.0 8:1.0 9:1.0 10:1.0 
-0.5142358025303302 1:1277792.0 2:5.0 3:1.0 4:1.0 5:3.0 6:2.0 7:1.0 8:1.0 9:1.0 10:1.0 
-0.5564433659517823 1:1285722.0 2:4.0 3:1.0 4:1.0 5:3.0 6:2.0 7:1.0 8:1.0 9:1.0 10:1.0 
-0.5564433659517823 1:1288608.0 2:3.0 3:1.0 4:1.0 5:1.0 6:2.0 7:1.0 8:2.0 9:1.0 10:1.0 
-0.556428253025774 1:1290203.0 2:3.0 3:1.0 4:1.0 5:1.0 6:2.0 7:1.0 8:2.0 9:1.0 10:1.0 
-0.55642844624367 1:1294413.0 2:1.0 3:1.0 4:1.0 5:1.0 6:2.0 7:1.0 8:1.0 9:1.0 10:1.0 
-0.5564285501530977 1:1299596.0 2:2.0 3:1.0 4:1.0 5:1.0 6:2.0 7:1.0 8:1.0 9:1.0 10:1.0 
-0.5564234005680353 1:1303489.0 2:3.0 3:1.0 4:1.0 5:1.0 6:2.0 7:1.0 8:2.0 9:1.0 10:1.0 
-0.5564234554341905 1:1311033.0 2:1.0 3:2.0 4:2.0 5:1.0 6:2.0 7:1.0 8:1.0 9:1.0 10:1.0 
-0.5564132951258745 1:1311108.0 2:1.0 3:1.0 4:1.0 5:3.0 6:2.0 7:1.0 8:1.0 9:1.0 10:1.0 
-0.5564134579140811 1:1318671.0 2:3.0 3:1.0 4:1.0 5:1.0 6:2.0 7:1.0 8:2.0 9:1.0 10:1.0 
-0.5564009023359449 1:1319609.0 2:3.0 3:1.0 4:1.0 5:2.0 6:3.0 7:4.0 8:1.0 9:1.0 10:1.0 
-0.5564017016636442 1:1323477.0 2:1.0 3:2.0 4:1.0 5:3.0 6:2.0 7:1.0 8:2.0 9:1.0 10:1.0 
-0.5564391536403072 1:1324572.0 2:5.0 3:1.0 4:1.0 5:1.0 6:2.0 7:1.0 8:2.0 9:2.0 10:1.0 
-0.5564470692714607 1:1324681.0 2:4.0 3:1.0 4:1.0 5:1.0 6:2.0 7:1.0 8:2.0 9:1.0 10:1.0 
-0.5564441829783915 1:1325159.0 2:3.0 3:1.0 4:1.0 5:1.0 6:2.0 7:1.0 8:3.0 9:1.0 10:1.0 
-0.5564203705156453 1:1326892.0 2:3.0 3:1.0 4:1.0 5:1.0 6:2.0 7:1.0 8:2.0 9:1.0 10:1.0 
-0.5564377289271025 1:1330361.0 2:5.0 3:1.0 4:1.0 5:1.0 6:2.0 7:1.0 8:2.0 9:1.0 10:1.0 
-0.5564407426040061 1:1333877.0 2:5.0 3:4.0 4:5.0 5:1.0 6:8.0 7:1.0 8:3.0 9:6.0 10:1.0 
-0.5564388852175763 1:1334667.0 2:1.0 3:1.0 4:1.0 5:1.0 6:2.0 7:1.0 8:1.0 9:1.0 10:1.0 
-0.5527233913909919 1:1339781.0 2:1.0 3:1.0 4:1.0 5:1.0 6:2.0 7:1.0 8:2.0 9:1.0 10:1.0 
-0.5527042821977024 1:1339781.0 2:4.0 3:1.0 4:1.0 5:1.0 6:2.0 7:1.0 8:3.0 9:1.0 10:1.0 
-0.556448321583903 1:1.3454352E7 2:1.0 3:1.0 4:3.0 5:1.0 6:2.0 7:1.0 8:2.0 9:1.0 10:1.0 
-0.5564560685221918 1:1345452.0 2:1.0 3:1.0 4:3.0 5:1.0 6:2.0 7:1.0 8:2.0 9:1.0 10:1.0 
-0.5564560685221918 1:1345593.0 2:3.0 3:1.0 4:1.0 5:3.0 6:2.0 7:1.0 8:2.0 9:1.0 10:1.0 
-0.5564583949571626 1:1347749.0 2:1.0 3:1.0 4:1.0 5:1.0 6:2.0 7:1.0 8:1.0 9:1.0 10:1.0 
-0.5564572414215632 1:1347943.0 2:5.0 3:2.0 4:2.0 5:2.0 6:2.0 7:1.0 8:1.0 9:1.0 10:2.0 
-0.5564887751974112 1:1348851.0 2:3.0 3:1.0 4:1.0 5:1.0 6:2.0 7:1.0 8:3.0 9:1.0 10:1.0 
-0.5564880332344364 1:1353092.0 2:3.0 3:2.0 4:1.0 5:2.0 6:2.0 7:1.0 8:3.0 9:1.0 10:1.0 
-0.5563601302448894 1:1354840.0 2:2.0 3:1.0 4:1.0 5:1.0 6:2.0 7:1.0 8:3.0 9:1.0 10:1.0 
-0.5565541826890928 1:1354840.0 2:5.0 3:3.0 4:2.0 5:1.0 6:3.0 7:1.0 8:1.0 9:1.0 10:1.0 
-0.5564884414038322 1:1355260.0 2:1.0 3:1.0 4:1.0 5:1.0 6:2.0 7:1.0 8:2.0 9:1.0 10:1.0 
-0.5564995771675622 1:1365075.0 2:4.0 3:1.0 4:4.0 5:1.0 6:2.0 7:1.0 8:1.0 9:1.0 10:1.0 
-0.5565224234454335 1:1365328.0 2:1.0 3:1.0 4:2.0 5:1.0 6:2.0 7:1.0 8:2.0 9:1.0 10:1.0 
-0.5564377289242588 1:1368267.0 2:5.0 3:1.0 4:1.0 5:1.0 6:2.0 7:1.0 8:1.0 9:1.0 10:1.0 
-0.5565904622834958 1:1368273.0 2:1.0 3:1.0 4:1.0 5:1.0 6:2.0 7:1.0 8:1.0 9:1.0 10:1.0 
-0.5565354123545728 1:1368882.0 2:2.0 3:1.0 4:1.0 5:1.0 6:2.0 7:1.0 8:1.0 9:1.0 10:1.0 
-0.5565354123545728 1:1371920.0 2:5.0 3:1.0 4:1.0 5:1.0 6:2.0 7:1.0 8:3.0 9:2.0 10:1.0 
-0.5565383108959969 1:466906.0 2:1.0 3:1.0 4:1.0 5:1.0 6:2.0 7:1.0 8:1.0 9:1.0 10:1.0 
-0.5565598541536102 1:534555.0 2:1.0 3:1.0 4:1.0 5:1.0 6:2.0 7:1.0 8:1.0 9:1.0 10:1.0 
-0.5566367431254482 1:536708.0 2:1.0 3:1.0 4:1.0 5:1.0 6:2.0 7:1.0 8:1.0 9:1.0 10:1.0 
-0.5566368096444408 1:566346.0 2:3.0 3:1.0 4:1.0 5:1.0 6:2.0 7:1.0 8:2.0 9:3.0 10:1.0 
-0.5566508207363046 1:603148.0 2:4.0 3:1.0 4:1.0 5:1.0 6:2.0 7:1.0 8:1.0 9:1.0 10:1.0 
-0.5564282530240493 1:654546.0 2:1.0 3:1.0 4:1.0 5:1.0 6:2.0 7:1.0 8:1.0 9:1.0 10:8.0 
-0.5565574516993507 1:654546.0 2:1.0 3:1.0 4:1.0 5:3.0 6:2.0 7:1.0 8:1.0 9:1.0 10:1.0 
-0.5566508207363046 1:714039.0 2:3.0 3:1.0 4:1.0 5:1.0 6:2.0 7:1.0 8:1.0 9:1.0 10:1.0 
-0.5566373100865711 1:763235.0 2:3.0 3:1.0 4:1.0 5:1.0 6:2.0 7:1.0 8:2.0 9:1.0 10:2.0 
-0.5566373100865711 1:776715.0 2:3.0 3:1.0 4:1.0 5:1.0 6:3.0 7:2.0 8:1.0 9:1.0 10:1.0 
-0.5566373100865711 1:841769.0 2:2.0 3:1.0 4:1.0 5:1.0 6:2.0 7:1.0 8:1.0 9:1.0 10:1.0 
